223 128
FIELD_IDENTIFIER -0.126311 -0.383031 0.111655 0.218779 -0.074096 -0.080884 -0.107764 -0.152491 -0.249997 0.206765 0.100792 0.245158 -0.127748 0.097321 -0.19257 0.263562 -0.090408 -0.125783 -0.252044 0.073456 0.03165 -0.00991 -0.035776 -0.092281 -0.171503 -0.202827 0.229992 -0.055598 0.050186 -0.336548 0.165659 0.21117 -0.108819 -0.081441 -0.189599 -0.002022 0.06625 0.219142 -0.186488 0.050847 0.225853 -0.188626 -0.167446 -0.19598 -0.335094 -0.351198 0.021763 0.066522 -0.288008 0.163332 -0.14605 -0.004285 -0.27451 0.147724 0.039395 -0.072022 -0.18665 -0.260838 0.098815 0.041271 0.094834 -0.317519 -0.079913 0.072665 -0.230413 -0.328564 0.060407 -0.058617 -0.01412 0.307054 -0.224356 -0.096397 -0.012593 -0.377992 0.19228 -0.138868 0.044047 -0.189912 0.221376 0.140222 -0.095353 -0.05844 0.039928 0.202654 0.006641 -0.012633 -0.101526 -0.07811 0.163245 0.027902 0.030901 -0.26689 -0.122628 0.261183 0.168658 0.267792 -0.032348 -0.139287 0.166442 -0.117803 0.077268 -0.002062 0.273293 -0.090365 -0.158515 -0.152072 -0.235207 0.14168 0.30151 0.218629 0.303857 -0.208284 -0.059973 0.014934 0.039805 -0.106498 0.043545 -0.193583 0.235259 -0.343728 -0.265458 0.221244 0.032136 -0.15319 0.342236 -0.031942 0.431203 0.164244
<operator>.assignment -0.057301 -0.248861 0.087242 0.113576 -0.026073 0.037498 0.014431 -0.014186 -0.129808 0.166244 0.038394 0.146301 -0.04634 0.008116 -0.134107 0.157983 -0.097764 -0.143068 -0.139766 0.074501 0.044594 -0.054221 0.062009 -0.087798 -0.120215 -0.095297 0.195722 0.016294 0.039311 -0.195986 0.075008 0.160101 -0.013704 -0.003904 -0.039348 -0.012533 -0.055409 0.137295 -0.178538 0.012975 0.023867 -0.036189 -0.167252 -0.198011 -0.215887 -0.286915 0.052115 0.02492 -0.166201 0.194767 -0.087049 0.079072 -0.259189 0.04395 0.086973 -0.120681 -0.069001 -0.216601 0.073922 0.055163 0.131774 -0.163701 -0.114952 0.036218 -0.069658 -0.142472 -0.025128 0.002732 -0.004319 0.229993 -0.116853 -0.054693 -0.059528 -0.202569 0.119178 -0.105096 -0.01123 -0.205995 0.160896 0.189814 0.028811 0.054453 0.016689 0.119196 -0.053253 -0.025311 -0.093538 0.018367 0.121339 0.062146 0.003013 -0.258419 -0.098269 0.093426 0.00075 0.196325 0.007845 -0.045652 0.077077 -0.054454 -0.038406 -0.001152 0.086167 -0.011716 -0.16521 -0.066718 -0.179235 -0.016574 0.117625 0.124074 0.270078 -0.14519 0.042937 0.04969 0.055561 -0.00932 -0.076158 -0.012505 0.191803 -0.354289 -0.098826 0.136395 -0.046042 -0.135828 0.25837 -0.031799 0.340506 0.096503
<operator>.indirectFieldAccess -0.107254 -0.323464 0.086866 0.187096 -0.060075 -0.079998 -0.084282 -0.132451 -0.215765 0.161219 0.083977 0.208249 -0.107274 0.071831 -0.152155 0.218669 -0.074704 -0.103127 -0.200874 0.070051 0.036742 -0.015518 -0.03579 -0.076667 -0.148924 -0.181087 0.191328 -0.047507 0.037288 -0.293022 0.136664 0.171908 -0.099267 -0.075721 -0.164218 0.00334 0.075679 0.177712 -0.151397 0.050523 0.19596 -0.157606 -0.12767 -0.150678 -0.272723 -0.289492 0.021443 0.059719 -0.227884 0.136921 -0.118658 -0.001752 -0.215258 0.133125 0.03583 -0.059664 -0.154582 -0.213327 0.077061 0.036561 0.077343 -0.261303 -0.061863 0.064408 -0.193163 -0.272643 0.051702 -0.049876 -0.012979 0.244747 -0.179963 -0.078536 -0.004715 -0.316572 0.149587 -0.109315 0.036135 -0.144381 0.172259 0.107599 -0.087823 -0.044318 0.037748 0.172006 0.001935 -0.004494 -0.086426 -0.07473 0.129803 0.021289 0.020969 -0.201964 -0.097322 0.235455 0.144053 0.224261 -0.031417 -0.118446 0.140379 -0.099041 0.061755 -0.003451 0.236496 -0.066728 -0.128801 -0.139715 -0.185987 0.123156 0.247611 0.183806 0.232143 -0.171317 -0.044734 0.007734 0.033791 -0.089441 0.045042 -0.169422 0.182591 -0.277753 -0.240148 0.189005 0.029356 -0.111886 0.280563 -0.026921 0.359516 0.137418
BLOCK 0.027923 -0.09614 0.021827 0.006594 0.031884 0.173354 0.090544 0.108794 0.016556 0.132143 -0.013782 0.080316 0.027762 -0.107329 -0.104008 0.110399 -0.087564 -0.149246 -0.088956 0.052276 0.087916 -0.13149 0.140459 -0.115017 -0.058508 0.006655 0.183963 0.068885 -0.013264 -0.122556 -0.007898 0.10844 0.045435 0.091412 0.195749 -0.027047 -0.258377 0.081023 -0.182428 0.03145 -0.128173 0.116197 -0.225076 -0.250618 -0.055039 -0.168255 0.087561 0.000816 -0.02019 0.227577 0.029659 0.188044 -0.254647 -0.051655 0.142477 -0.163536 0.081908 -0.159659 0.054475 0.050618 0.146071 -0.019297 -0.138984 0.038759 0.019381 0.002888 -0.077359 0.101856 -0.02955 0.161605 -0.022606 -0.009786 -0.091125 -0.017939 0.061095 -0.051227 -0.015803 -0.085515 0.136742 0.237402 0.134467 0.128755 -0.005091 0.044602 -0.077188 -0.000215 -0.063955 0.17041 0.043757 0.062622 0.014587 -0.242461 -0.078228 -0.105633 -0.128381 0.154066 0.087392 -0.01318 -0.021163 0.032268 -0.059685 -0.030028 -0.018283 0.094422 -0.123903 -0.030773 -0.054085 -0.177944 -0.102303 0.011799 0.240043 -0.14403 0.194018 0.02281 0.016203 0.03677 -0.152449 0.084896 0.162063 -0.368628 0.036644 0.134734 -0.190127 -0.126668 0.196734 -0.01233 0.21989 0.029149
CONTROL_STRUCTURE 0.051669 -0.055809 -0.007226 -0.015288 0.049135 0.18146 0.104116 0.118299 0.056593 0.105821 -0.021243 0.023848 0.064231 -0.135423 -0.077115 0.093155 -0.067591 -0.115747 -0.057068 0.05443 0.097686 -0.153959 0.137334 -0.125617 -0.00989 0.03394 0.153481 0.078344 -0.020485 -0.09217 -0.028845 0.060107 0.05605 0.107169 0.2468 -0.043557 -0.283076 0.068006 -0.156865 0.05115 -0.154909 0.165445 -0.217449 -0.23996 0.014476 -0.107403 0.071382 -0.008584 0.033519 0.233628 0.055893 0.21059 -0.228446 -0.082172 0.136938 -0.140697 0.092401 -0.121164 0.030647 0.038231 0.131656 0.014651 -0.133573 0.027374 0.038903 0.032892 -0.08884 0.114641 -0.025851 0.126884 0.026374 -0.010448 -0.108356 0.039343 0.037562 -0.022282 0.001768 -0.017238 0.131624 0.235971 0.15542 0.129737 -0.007421 0.015913 -0.071722 0.01076 -0.037782 0.204067 -0.022074 0.076649 0.0271 -0.199712 -0.063239 -0.141511 -0.153171 0.141937 0.089498 -0.016391 -0.051108 0.055331 -0.033766 -0.054353 -0.062536 0.107839 -0.109912 -0.013739 0.005861 -0.205785 -0.144992 -0.046444 0.221136 -0.152323 0.219265 -0.003449 -0.006892 0.054495 -0.167146 0.087689 0.13033 -0.323946 0.073372 0.118723 -0.235772 -0.121363 0.156835 -0.005033 0.140746 -0.013126
LITERAL -0.054715 -0.17455 0.094759 0.075503 -0.030922 -0.004674 0.00603 -0.032914 -0.111258 0.123872 0.025446 0.093682 -0.033652 0.070881 -0.074391 0.078691 -0.061637 -0.087216 -0.094458 0.065662 -0.012499 0.021338 0.021415 -0.032114 -0.095567 -0.073016 0.102104 -0.00028 0.063739 -0.094424 0.049024 0.116615 0.004021 -0.015401 -0.096875 -0.016761 0.027529 0.070532 -0.097664 -0.011937 0.018996 -0.069507 -0.059768 -0.080808 -0.184205 -0.202844 -0.010365 0.012791 -0.134927 0.090811 -0.100717 -0.006491 -0.154954 0.043676 0.006831 -0.061716 -0.059559 -0.128355 0.046694 0.039521 0.076293 -0.125943 -0.068028 -0.016418 -0.036548 -0.097123 -0.006422 -0.049995 0.012621 0.132635 -0.079235 -0.050386 -0.033882 -0.15759 0.092624 -0.077556 -0.01829 -0.214047 0.081522 0.093421 -0.016866 0.007519 -0.007252 0.101757 -0.056739 -0.037487 -0.072563 -0.045942 0.117025 0.038912 -0.00768 -0.16897 -0.085909 0.118196 0.00104 0.118687 -0.029451 -0.005624 0.076985 -0.067689 -0.04971 0.041065 0.036997 -0.05241 -0.115835 -0.027169 -0.178452 0.023977 0.136447 0.089783 0.175214 -0.043343 -0.036388 0.056185 0.064516 -0.001131 -0.061168 0.013355 0.134497 -0.199632 -0.057854 0.034101 0.025663 -0.078133 0.174548 -0.027877 0.23574 0.07309
UNKNOWN 0.068355 0.013659 0.010267 -0.056581 0.025065 0.17194 0.065297 0.110907 0.07765 0.072663 -0.03897 0.030199 0.039415 -0.086046 -0.072641 0.057168 -0.01893 -0.098809 -0.039174 0.043814 0.058798 -0.104397 0.112314 -0.084654 -0.026256 0.057667 0.095382 0.079233 0.001298 -0.049212 -0.04777 0.061202 0.060829 0.112709 0.206972 -0.018737 -0.237992 -0.028109 -0.133994 0.05216 -0.132008 0.11154 -0.142964 -0.183984 -0.039596 -0.054742 0.032935 0.001435 0.054303 0.105422 0.021824 0.142038 -0.146678 -0.046976 0.069324 -0.114629 0.168783 -0.073345 0.026705 0.081368 0.112244 0.036267 -0.096633 -0.02791 0.006918 0.043415 -0.040923 0.061097 -0.031241 0.055759 0.026789 -0.009519 -0.061529 0.066744 0.036484 0.019984 -0.034181 -0.040583 0.048134 0.177097 0.08581 0.083492 -0.029444 0.028792 -0.076386 0.007439 -0.032802 0.139344 0.001938 0.039509 -0.004245 -0.126421 -0.048494 -0.124427 -0.138479 0.092604 0.100318 -0.026831 -0.057883 0.037787 -0.085205 0.026137 -0.061459 0.107328 -0.060845 -0.01584 -0.028557 -0.163407 -0.112851 -0.024446 0.138838 -0.019127 0.194609 -0.011286 0.047123 0.052299 -0.124353 0.129782 0.121712 -0.221699 0.052242 0.082586 -0.159042 -0.057357 0.111173 0.003577 0.072887 -0.002362
RETURN 0.021503 -0.022508 0.026026 -0.009009 0.005628 0.085317 0.037961 0.051551 0.017549 0.067398 -0.016114 0.036642 0.016807 -0.025337 -0.047701 0.043181 -0.028208 -0.075937 -0.043621 0.035352 0.026812 -0.045632 0.061685 -0.045168 -0.030832 0.015712 0.066408 0.03673 0.021176 -0.050877 -0.009239 0.056684 0.039489 0.055682 0.095102 -0.020347 -0.123896 0.005193 -0.089341 0.027191 -0.064049 0.039904 -0.084114 -0.108465 -0.048215 -0.070859 0.012785 -0.002101 0.00155 0.081777 0.005509 0.073613 -0.108029 -0.012146 0.034483 -0.08279 0.07224 -0.069783 0.019516 0.044414 0.066602 -0.00844 -0.061465 -0.015782 0.004451 0.017734 -0.027518 0.022573 -0.019608 0.045362 -0.006248 -0.005945 -0.032043 0.008641 0.038324 -0.014291 -0.017931 -0.056695 0.032269 0.111168 0.033559 0.042436 -0.018669 0.038601 -0.057571 -0.002728 -0.037106 0.065628 0.036059 0.02422 -0.001994 -0.105123 -0.047726 -0.040257 -0.079573 0.065238 0.048014 -0.009252 -0.010447 0.015416 -0.050853 0.018487 -0.019773 0.053517 -0.044832 -0.014447 -0.052607 -0.077107 -0.03519 -0.002249 0.111227 -0.020755 0.086459 0.00244 0.039322 0.022436 -0.084803 0.065966 0.084234 -0.150895 0.023454 0.047644 -0.086219 -0.044245 0.090637 0.000875 0.083347 0.012501
s 0.028858 0.032746 -0.012218 -0.036506 0.007554 0.045037 0.014259 0.047127 0.034074 0.002327 -0.015437 -0.0143 0.014819 -0.032495 -0.001115 -0.005275 -0.003385 -0.007324 0.014394 0.000729 0.014884 -0.017652 0.034368 -0.011324 0.009369 0.039074 -0.000624 0.021331 -0.01666 0.025926 -0.0298 0.007996 0.021394 0.028442 0.063127 0.001399 -0.061235 -0.02951 -0.017933 -0.00107 -0.054361 0.038895 -0.027906 -0.029676 0.020406 0.017031 0.013416 -0.004973 0.035252 -0.002171 0.005542 0.031487 -0.005315 -0.023476 0.015928 -0.019546 0.062634 0.004687 0.012286 0.021058 0.015889 0.041359 -0.014432 -0.003689 0.017481 0.032777 -0.013429 0.01857 -0.00291 0.00069 0.020233 0.01021 -0.010385 0.041998 -0.008749 0.024075 -0.01203 0.002812 0.000727 0.03085 0.038611 0.023668 -0.005736 -0.012621 -0.003503 0.004159 0.004773 0.043822 -0.018971 0.009129 -0.004029 -0.008038 0.001394 -0.063335 -0.039482 -0.011904 0.02485 0.013417 -0.029578 0.011577 -0.033591 0.010956 -0.033485 0.021284 -5.5e-05 0.010139 0.028641 -0.049008 -0.051868 -0.006305 -0.003515 0.01533 0.056744 0.001476 -0.000222 0.019984 -0.031042 0.052491 0.011427 -0.026377 0.032739 -0.004618 -0.029055 -0.001602 -0.006829 0.00253 -0.02044 -0.007982
METHOD_RETURN 0.021319 -0.019679 0.001258 -0.011851 0.026826 0.101436 0.063252 0.073397 0.027575 0.052969 -0.012371 0.03278 0.018895 -0.071534 -0.042027 0.031025 -0.04677 -0.075314 -0.032991 0.01324 0.044919 -0.073433 0.08224 -0.052135 -0.026511 0.011526 0.090708 0.037321 -0.020075 -0.043999 -0.015111 0.041815 0.028519 0.052576 0.116571 -0.012457 -0.147515 0.03451 -0.082657 0.004215 -0.088153 0.078969 -0.11442 -0.119906 0.003545 -0.068009 0.057809 -0.007903 0.006473 0.119535 0.03796 0.103828 -0.122765 -0.042183 0.08619 -0.087094 0.051468 -0.066944 0.024691 0.012441 0.071348 0.014869 -0.068533 0.029693 0.037779 0.028892 -0.052991 0.068826 -0.016013 0.067684 -0.000456 0.005785 -0.047116 0.017228 0.018065 -0.022212 -0.012269 -0.031208 0.057325 0.112845 0.087192 0.082249 -0.004518 0.002634 -0.040311 0.001648 -0.034442 0.100479 0.021966 0.023772 0.007882 -0.11959 -0.032457 -0.081581 -0.082803 0.05916 0.052042 0.011388 -0.021604 0.032962 -0.037555 -0.022518 -0.024437 0.062231 -0.052305 -0.00665 -0.011688 -0.111464 -0.087231 -0.005272 0.105245 -0.071299 0.110812 0.021969 0.000346 0.02195 -0.084319 0.053677 0.064456 -0.183245 0.046725 0.059441 -0.103462 -0.059083 0.080968 -0.007923 0.099196 0.006525
<operator>.addressOf -0.052824 -0.111501 0.020166 0.074906 -0.026121 -0.050805 -0.042267 -0.065497 -0.097835 0.047539 0.035958 0.079038 -0.040572 0.031671 -0.057501 0.084118 -0.020026 -0.017352 -0.078565 0.025659 0.002657 -0.001792 -0.032408 -0.020655 -0.054 -0.078357 0.052908 -0.028842 0.006766 -0.108446 0.061212 0.06168 -0.048418 -0.048088 -0.083573 0.003711 0.059713 0.07191 -0.035297 0.017971 0.100194 -0.079517 -0.033044 -0.035428 -0.099373 -0.086631 -0.003678 0.016902 -0.080933 0.02906 -0.048473 -0.011541 -0.062565 0.061295 0.008805 -0.011806 -0.074361 -0.075907 0.02133 0.003488 0.007619 -0.108434 -0.007201 0.022397 -0.082706 -0.11903 0.032929 -0.023982 -0.006013 0.080134 -0.069914 -0.032141 0.011708 -0.132574 0.042315 -0.041353 0.007622 -0.035073 0.054065 0.012073 -0.050305 -0.033573 0.028066 0.065851 0.011539 0.005933 -0.02474 -0.044208 0.041709 -0.00555 0.010173 -0.056392 -0.025589 0.101255 0.077468 0.066971 -0.020623 -0.061132 0.063869 -0.047831 0.041719 -0.014395 0.115763 -0.029137 -0.045532 -0.06399 -0.061793 0.06653 0.102547 0.074047 0.071418 -0.060567 -0.040367 -0.008688 0.002838 -0.039336 0.035465 -0.083207 0.039605 -0.070113 -0.110184 0.070558 0.025583 -0.029846 0.090746 -0.012143 0.12906 0.054705
<operator>.indirectIndexAccess -0.005611 -0.014171 0.024097 -0.00145 -0.004311 0.000664 0.01987 0.004022 -0.012317 0.019036 0.000383 -0.00932 0.004978 0.023702 0.007163 -0.020256 -0.009185 -0.010828 0.007069 0.012158 -0.020439 0.025587 0.005534 0.014498 -0.008336 -0.007131 -0.004907 -0.001857 0.023272 0.031189 -0.006157 0.010225 0.017183 -0.006228 -0.033195 -0.00387 0.029497 0.002848 -0.002086 -0.029883 -0.020193 0.000126 0.010913 0.013015 -0.025681 -0.026525 -0.008273 -0.005229 -0.021813 0.003959 -0.029859 -0.018529 -0.016948 -0.012665 -0.008563 0.002287 -0.0196 -0.012847 0.005825 0.002401 0.009343 -0.002259 -0.013239 -0.022431 0.030526 0.006142 -0.011864 -0.018872 0.014529 0.004414 0.005871 -0.007622 -0.018 -0.01253 -0.002316 -0.018877 -0.01616 -0.07769 0.001288 0.001458 0.010777 0.012731 -0.005804 0.000593 -0.016549 -0.022071 -0.009848 -0.015852 0.027539 0.009104 -0.009776 -0.026314 -0.009582 0.015586 -0.016467 -0.002256 -0.025407 0.027776 0.011933 -0.017146 -0.033997 0.01871 -0.040233 -0.025887 -0.032556 0.02358 -0.040626 -0.004266 0.018942 0.004403 0.02524 0.015951 -0.028137 0.029341 0.018351 0.025904 -0.031276 0.033491 0.012094 -0.013941 0.024733 -0.038881 0.02236 -0.011737 0.012918 -0.010833 0.030744 0.005468
temp 0.002435 0.007581 0.01911 -0.0168 0.003069 0.013285 0.029526 0.019169 0.004385 0.009043 -0.012765 -0.024223 0.013664 0.019328 0.017423 -0.033093 -0.00711 -0.008354 0.022486 0.012556 -0.019501 0.023421 0.015628 0.012275 0.000129 0.013954 -0.012383 0.008078 0.020802 0.050491 -0.017177 0.00183 0.026984 0.008889 -0.010593 -0.007629 0.011329 -0.008392 0.003859 -0.029497 -0.049281 0.014549 0.015715 0.017263 -0.004987 -0.013082 -0.007137 -0.014101 -0.004239 0.002591 -0.019903 -0.01012 -0.009894 -0.023116 -0.00778 -0.004659 -2.1e-05 0.003607 -0.001929 0.002373 0.009929 0.019123 -0.014298 -0.027732 0.050955 0.035591 -0.019647 -0.011462 0.015465 -0.006248 0.020625 0.002776 -0.021537 0.014097 -0.009106 -0.012615 -0.019736 -0.069218 -0.010302 0.004291 0.019214 0.020971 -0.010816 -0.008042 -0.025587 -0.022794 -0.006551 -0.006532 0.019076 0.013126 -0.010367 -0.024 -0.009165 -0.004227 -0.039741 -0.016549 -0.01922 0.044026 -0.000778 -0.007302 -0.040689 0.015988 -0.060039 -0.014904 -0.026109 0.035162 -0.032422 -0.024763 -0.00374 -0.010846 0.016233 0.028384 -0.01759 0.028877 0.015897 0.034472 -0.044557 0.057267 0.006211 -0.008852 0.04803 -0.049845 0.010591 -0.003874 -0.001859 -0.009886 0.012332 -0.006673
parser -0.051179 -0.112821 0.023302 0.075025 -0.028548 -0.058566 -0.049572 -0.069826 -0.084526 0.036 0.042275 0.072679 -0.044021 0.033122 -0.041192 0.068912 -0.021064 -0.014207 -0.067488 0.008356 -0.001708 0.009667 -0.042344 -0.012642 -0.043316 -0.076298 0.045992 -0.034707 0.009079 -0.101007 0.056688 0.043845 -0.052236 -0.041849 -0.091545 0.006429 0.066739 0.05643 -0.030818 0.018086 0.098539 -0.085196 -0.017818 -0.024748 -0.085894 -0.078658 0.004377 0.026931 -0.075699 0.020346 -0.041276 -0.027345 -0.033167 0.06931 -0.006598 0.000433 -0.062546 -0.052359 0.01934 0.005383 0.005803 -0.102028 0.00297 0.028429 -0.086761 -0.1114 0.033432 -0.022203 -0.005906 0.070026 -0.072517 -0.025621 0.023787 -0.125876 0.053944 -0.033228 0.028864 -0.018107 0.045552 0.000799 -0.056281 -0.04838 0.016672 0.057679 0.022374 0.000433 -0.018081 -0.046837 0.034959 -0.012761 0.009538 -0.029098 -0.024563 0.106376 0.086841 0.060905 -0.022157 -0.048698 0.050968 -0.036001 0.03999 -0.000414 0.103264 -0.039034 -0.023883 -0.058385 -0.049456 0.086804 0.111618 0.069656 0.049665 -0.054864 -0.041722 0.003396 0.002063 -0.053914 0.045244 -0.095716 0.041637 -0.045084 -0.102835 0.061107 0.044103 -0.021009 0.076037 0.000706 0.096865 0.050456
<operator>.equals 0.030769 0.010802 -0.016839 -0.01949 0.032159 0.073346 0.058094 0.063676 0.050186 0.026305 -0.013181 -0.025091 0.04567 -0.060847 -0.008631 0.01396 -0.026553 -0.034197 0.00395 0.017488 0.031907 -0.061955 0.062924 -0.037089 0.028281 0.034622 0.039799 0.031017 -0.01593 -0.00175 -0.024255 -0.010079 0.034215 0.047471 0.126313 -0.029379 -0.118964 0.021536 -0.038527 0.017758 -0.080378 0.098437 -0.069608 -0.070614 0.059392 0.001785 0.019376 -0.003421 0.041497 0.081318 0.045029 0.093221 -0.065629 -0.045433 0.053001 -0.045457 0.037535 -0.021187 0.003608 0.002991 0.039092 0.038695 -0.049134 0.009342 0.049294 0.046155 -0.039563 0.058627 -0.013017 0.016455 0.035256 0.006346 -0.047622 0.05489 -0.012298 0.001644 0.012644 0.028536 0.035775 0.078678 0.078494 0.056398 -0.002598 -0.019193 -0.022947 0.003134 0.008051 0.101067 -0.032861 0.031805 0.018542 -0.056014 -0.008234 -0.079548 -0.080333 0.030563 0.028181 0.005332 -0.043841 0.043823 -0.002635 -0.038056 -0.048221 0.051432 -0.026778 0.011181 0.042809 -0.092586 -0.095987 -0.061107 0.06342 -0.055984 0.095918 -0.013595 -0.014834 0.032043 -0.071395 0.036293 0.022385 -0.088119 0.052681 0.026465 -0.109009 -0.037479 0.02488 0.002062 -0.000199 -0.023862
efx -0.022064 -0.050249 0.015486 0.038046 -0.014823 -0.048815 -0.040177 -0.039301 -0.045923 0.005011 0.016756 0.03113 -0.038665 0.034506 -0.014576 0.027299 -0.000562 0.002862 -0.028815 0.003591 -0.002288 0.020466 -0.028273 0.00617 -0.015685 -0.0404 0.002255 -0.028582 0.00118 -0.039416 0.027311 0.0185 -0.032323 -0.03513 -0.068016 0.009183 0.061009 0.029754 0.000878 0.005799 0.07358 -0.052613 0.010629 0.017253 -0.036227 -0.032854 -0.000542 0.009245 -0.044718 -0.016558 -0.022406 -0.039327 0.007515 0.032404 -0.011562 0.019923 -0.051231 -0.00909 0.012368 -0.007413 -0.013924 -0.046222 0.010605 0.013237 -0.040867 -0.056319 0.025399 -0.026708 -0.003199 0.021758 -0.037386 -0.007602 0.017621 -0.063879 0.018609 -0.01113 0.009929 -0.009574 0.016636 -0.017909 -0.034898 -0.029822 0.008833 0.030589 0.019022 0.004915 -0.002859 -0.048107 0.017053 -0.005939 0.004117 0.004802 0.000106 0.068459 0.057914 0.020029 -0.02203 -0.011201 0.028847 -0.02159 0.032674 0.001746 0.060768 -0.025235 0.002845 -0.02259 -0.023251 0.056099 0.06505 0.033808 -0.005024 -0.016338 -0.041706 -0.006043 4.3e-05 -0.029872 0.044205 -0.059982 0.008243 0.009014 -0.060124 0.013335 0.040397 -0.002975 0.020427 -0.001776 0.033311 0.020197
<operator>.fieldAccess -0.025594 -0.087261 0.025799 0.064017 -0.02548 -0.066259 -0.060964 -0.073011 -0.063183 0.038093 0.036991 0.05497 -0.05736 0.069105 -0.042759 0.059047 -0.007521 -0.004646 -0.067308 0.000698 -0.005731 0.029291 -0.053987 0.002222 -0.034461 -0.054099 0.038604 -0.035528 0.021355 -0.068594 0.05453 0.032341 -0.06003 -0.040431 -0.08761 0.010592 0.062734 0.068839 -0.007982 -0.000264 0.105505 -0.072459 -0.00479 -0.018385 -0.088679 -0.056942 -0.007046 0.022463 -0.09854 -0.000509 -0.042455 -0.040071 -0.033027 0.032732 -0.022629 0.032384 -0.095184 -0.045528 0.028236 -0.004591 -0.004872 -0.086036 0.005014 0.026732 -0.075404 -0.104293 0.043527 -0.043432 -0.006316 0.067898 -0.058973 -0.026589 0.005322 -0.091338 0.045683 -0.030111 0.02466 -0.026677 0.053377 -0.016085 -0.053095 -0.038892 0.014514 0.03205 0.038474 -0.01531 0.0061 -0.060201 0.045407 -0.009277 0.011492 -0.03798 -0.018241 0.079995 0.093015 0.043511 -0.032699 -0.039382 0.065298 -0.033886 0.056233 0.003114 0.081959 -0.059622 -0.0119 -0.020125 -0.042278 0.079582 0.115233 0.052183 0.049063 -0.035211 -0.068448 -0.002472 -0.010971 -0.046891 0.064665 -0.090261 0.036418 -0.029332 -0.080196 0.053002 0.039187 -0.024792 0.054754 -0.015318 0.068954 0.034077
name 0.00827 0.005125 -0.005872 -0.0044 0.019667 0.027219 0.022603 0.025742 0.012394 0.017917 -0.007984 -0.003028 0.022034 -0.005953 -0.009677 0.004626 -0.004774 -0.013386 -0.009046 0.012696 0.009936 -0.009433 0.020781 -0.002592 0.007664 0.00657 0.019036 0.005727 -0.007246 -0.008942 -0.006999 0.010017 0.018065 0.010781 0.044567 -0.004711 -0.041911 0.008172 -0.013024 0.005968 -0.021854 0.035221 -0.021963 -0.017838 0.020385 0.010056 0.006211 0.00428 0.014553 0.017967 0.016173 0.024872 -0.025074 -0.005943 0.01237 -0.017543 0.023385 -0.000671 -0.001955 -0.001646 0.009895 0.01659 -0.022132 0.000782 0.013736 0.016821 -0.008294 0.01181 -0.004313 -0.005444 0.011059 0.004588 -0.010279 0.009019 -0.014023 0.005122 0.009545 0.007844 0.012323 0.017349 0.022901 0.014765 -0.003149 -0.008106 -0.013474 -0.006235 -0.005511 0.031401 -0.000321 0.006221 0.006078 -0.011594 -0.005825 -0.026821 -0.022631 0.007501 0.012455 0.007815 -0.019941 0.011933 0.004649 -0.01136 -0.001746 0.016553 0.000471 0.013649 0.022028 -0.02634 -0.037511 -0.022251 0.020413 -0.02139 0.02485 -0.001859 0.00218 0.010892 -0.017582 0.008958 0.005371 -0.032343 0.010542 0.013148 -0.028652 -0.007962 0.001664 -0.005131 -0.003555 -0.003233
p 0.001169 0.03921 -0.015684 -0.009948 -0.000375 -0.03002 -0.013957 -0.014995 0.007685 -0.040604 -0.000647 -0.025688 0.001883 0.004348 0.030039 -0.04439 0.02232 0.034472 0.033311 -0.011976 -0.008638 0.016676 -0.030287 0.025876 0.028127 0.008972 -0.040839 -0.006268 0.00087 0.04256 -0.006992 -0.039979 -0.006443 -0.019118 -0.020097 0.005125 0.041316 -0.016587 0.042367 -0.009055 0.007783 -0.000143 0.049601 0.058067 0.03279 0.060097 -0.010407 -0.006489 0.02067 -0.044914 0.00285 -0.022955 0.059212 -0.006234 -0.02474 0.035809 -0.008541 0.034922 -0.021751 -0.017647 -0.036261 0.024322 0.031193 -0.002325 0.011459 0.01895 0.011577 -0.006236 0.003775 -0.04446 0.021335 0.015379 0.021572 0.02653 -0.03406 0.015607 -1.3e-05 0.038374 -0.036627 -0.052577 -0.010657 -0.013703 -0.004486 -0.026229 0.017425 0.003415 0.024541 -0.018884 -0.022829 -0.009909 0.002059 0.060113 0.026605 -0.008787 0.018936 -0.054837 -0.015266 -0.00103 -0.003183 -0.001663 0.012256 -0.006665 -0.009317 -0.005273 0.032191 0.005689 0.042641 0.018012 -0.015155 -0.012434 -0.059347 0.031448 -0.029444 -0.003743 -0.00772 0.001819 0.024415 -0.012186 -0.056345 0.090974 0.009538 -0.034455 0.029761 0.037365 -0.060582 0.00527 -0.065841 -0.022855
val 0.031349 0.058555 -0.013831 -0.04837 0.006339 0.036236 0.014734 0.029189 0.051956 -0.023688 -0.0267 -0.027925 0.017881 -0.013766 0.012718 -0.031668 0.020514 0.009255 0.02576 0.00254 -0.004722 -0.008005 0.012584 0.006245 0.017891 0.032485 -0.022891 0.016521 -0.006523 0.044094 -0.033162 -0.022378 0.017402 0.031565 0.048708 -0.002036 -0.038005 -0.045771 0.008554 0.008275 -0.036059 0.036863 0.009151 0.007491 0.029758 0.052133 -0.012274 0.001329 0.050421 -0.029256 0.021022 0.009791 0.02782 -0.023682 -0.011594 0.005599 0.061964 0.036465 -0.017029 0.012365 0.000954 0.051758 -0.001115 -0.023771 0.02447 0.043521 0.005454 0.007781 -0.002798 -0.044617 0.031227 0.010783 -0.00395 0.061364 -0.021378 0.028384 -0.003253 0.023803 -0.03192 -0.004753 0.021001 0.004389 -0.012859 -0.021713 -0.007193 0.010146 0.015367 0.028728 -0.022421 -0.007721 -0.001403 0.027575 0.013481 -0.052563 -0.036721 -0.023717 0.018565 0.001934 -0.03353 0.021531 -0.021965 0.012547 -0.038279 0.021738 0.01839 0.016898 0.03501 -0.031698 -0.046576 -0.032074 -0.036153 0.046434 0.033004 -0.008386 0.006644 0.020846 -0.01104 0.04567 -0.016523 0.035319 0.032762 -0.014754 -0.014336 0.015447 -0.041342 0.00456 -0.057087 -0.018594
addr 0.007625 0.018923 -0.011957 -0.018716 0.004996 0.004036 -0.005777 -0.00499 0.014978 -0.016613 -0.01429 -0.001175 -0.002179 -0.00042 0.009603 -0.006054 0.015664 0.014609 0.012406 -0.000854 0.000403 0.000566 -0.013823 0.010047 0.002664 -0.000394 -0.014236 -0.000866 -0.005829 0.014179 -0.00963 -0.012591 0.003055 0.008137 0.008754 0.006465 0.001123 -0.015344 0.011588 0.003078 0.002718 0.003751 0.009824 0.010143 0.016183 0.024122 -0.000623 0.006361 0.012108 -0.024876 0.014383 -0.011145 0.023529 -0.002352 -0.010686 0.015999 0.017384 0.016982 -0.011145 0.001504 -0.011574 0.010274 0.007122 -0.008988 0.001878 0.011432 0.011841 -4e-05 -0.007332 -0.015939 0.007227 0.007672 0.00553 0.022817 -0.010807 0.011119 -8.1e-05 0.024206 -0.018455 -0.018184 0.003193 -0.004648 -0.005033 -0.012237 0.000838 0.000209 0.001611 0.002726 -0.01085 -0.009957 0.003403 0.029282 0.015388 -0.014699 0.001938 -0.01107 0.003869 -0.005141 -0.011907 0.01154 0.004169 0.006746 -0.004383 0.006917 0.020498 0.003618 0.011988 -0.005152 -0.020042 -0.006468 -0.027265 0.019546 -0.00143 -0.007184 -0.00729 0.00461 0.012134 0.00276 -0.019245 0.039246 0.00914 -0.008357 0.00743 0.012254 -0.026681 0.008194 -0.030223 -0.005529
net_dev -0.033156 -0.076651 0.020391 0.052554 -0.017884 -0.050078 -0.040171 -0.0548 -0.062127 0.023798 0.027004 0.045263 -0.035108 0.031128 -0.02673 0.049481 -0.003286 -0.011413 -0.038605 0.008262 0.001641 0.016321 -0.028757 -0.007147 -0.033877 -0.048655 0.024937 -0.021434 0.010618 -0.070891 0.043286 0.031155 -0.033509 -0.03523 -0.074257 0.004986 0.063558 0.042697 -0.01754 0.009076 0.079292 -0.053125 -0.007454 -0.003626 -0.066847 -0.053402 -0.002463 0.017547 -0.067948 0.006534 -0.034201 -0.022314 -0.022534 0.046328 -0.005176 0.013101 -0.064023 -0.040054 0.014037 0.001008 -0.000863 -0.067403 -0.000719 0.023046 -0.061673 -0.078337 0.026555 -0.026409 0.006684 0.044914 -0.047768 -0.015432 0.004507 -0.079033 0.027892 -0.023716 0.020201 -0.011853 0.037782 -0.005442 -0.046131 -0.024192 0.016775 0.035215 0.015947 0.003564 -0.014568 -0.036337 0.024873 -0.000637 0.010183 -0.021698 -0.014825 0.080576 0.059771 0.041558 -0.019226 -0.029894 0.042615 -0.030997 0.033099 -0.001806 0.074794 -0.039133 -0.017638 -0.038358 -0.034388 0.059776 0.076876 0.055096 0.025899 -0.036013 -0.037302 -0.00381 0.001254 -0.030105 0.038775 -0.060644 0.026044 -0.022621 -0.071341 0.035929 0.03295 -0.009705 0.047612 -0.005906 0.066299 0.0362
<anonymous> 0.016449 0.060593 -0.004896 -0.02242 0.00601 0.009416 0.009957 0.022721 0.046224 -0.038787 -0.012985 -0.02425 0.01905 -0.017841 0.022379 -0.046173 0.020222 0.012567 0.034684 -0.011963 -0.009526 0.006842 0.011088 0.013015 0.016123 0.026696 -0.023776 0.004894 -0.01357 0.050662 -0.029251 -0.025999 0.015832 0.021465 0.010939 0.013097 0.002165 -0.031071 0.02363 -0.003239 -0.036415 0.020285 0.026082 0.019824 0.039698 0.055663 0.001246 -0.017939 0.043928 -0.02623 0.027552 -0.011092 0.045561 -0.019619 0.002116 0.008026 0.02551 0.037733 -0.01553 -0.012748 -0.00043 0.050217 0.022567 -0.005266 0.037239 0.039949 -0.015305 0.017727 0.012056 -0.055123 0.031166 0.023618 0.005527 0.050996 -0.016594 0.028864 -0.012758 0.014512 -0.048684 -0.020443 0.012812 0.02166 0.004559 -0.043915 0.003283 0.003015 0.013089 0.010703 -0.015225 -0.015447 -0.01122 0.035359 0.012185 -0.030165 -0.02794 -0.034551 0.018947 0.036241 -0.017026 0.025557 -0.007712 -0.001927 -0.036564 0.010936 0.033107 0.01673 0.018814 -0.014552 -0.052105 -0.025808 -0.039445 0.036857 -0.001152 0.012935 0.002934 0.003523 0.002147 0.024728 -0.041711 0.039637 0.037254 -0.040907 0.008988 0.026756 -0.049265 0.004955 -0.058137 -0.017305
rc 0.000945 0.024404 -0.007664 -0.015186 0.007053 -0.001528 0.002836 0.005874 0.023646 -0.025889 -0.002775 -0.023279 0.006324 -0.006661 0.020502 -0.024378 0.008718 0.010753 0.025317 -0.012755 -0.002397 0.005303 -0.00244 0.015863 0.01675 0.017096 -0.023286 0.000459 0.000779 0.024493 -0.014359 -0.015242 0.005799 0.000165 0.008854 0.000236 0.003445 -0.012678 0.024587 -0.005296 -0.010752 0.010604 0.020128 0.021247 0.032888 0.036479 0.001105 -0.008761 0.021114 -0.017728 0.006085 -0.004228 0.032958 -0.010068 -0.0071 0.014981 0.010195 0.020314 -0.011095 -0.005566 -0.007935 0.020788 0.00511 -0.005344 0.020705 0.027378 -0.000732 -0.001992 0.000987 -0.02704 0.015341 0.014027 0.002526 0.030163 -0.019102 0.01723 -0.000691 0.026117 -0.016662 -0.017035 0.00224 -0.004049 0.004241 -0.018792 0.009945 -0.000828 0.011498 -0.000323 -0.01913 -0.000247 -0.004976 0.033085 0.010737 -0.016005 -0.008434 -0.027277 -0.003098 0.014761 -0.012841 0.012489 -0.008057 0.00092 -0.016823 0.004458 0.011823 0.014157 0.017308 0.001324 -0.016101 -0.016466 -0.032989 0.012867 -0.007848 -5.7e-05 0.000294 0.012242 0.00374 0.005988 -0.025545 0.039893 0.014092 -0.01661 0.00354 0.014068 -0.038649 -0.002403 -0.032996 -0.016361
<operator>.logicalNot 0.011553 0.006216 -0.012004 -0.005928 0.010419 0.022751 0.009474 0.023661 0.024005 -0.000483 -0.003027 -0.009441 0.014279 -0.031541 -0.001969 0.011927 0.003276 -0.006217 0.007346 -0.002179 0.015079 -0.02809 0.01682 -0.017171 0.006316 0.012198 0.008414 0.011781 -0.0047 -0.006454 -0.001844 -0.003321 0.01237 0.016999 0.040179 -0.006729 -0.039999 0.006743 -0.016302 0.013013 -0.026986 0.035493 -0.027672 -0.030834 0.021955 0.002002 0.007618 -0.007277 0.019425 0.034272 0.017684 0.024579 -0.015034 -0.02555 0.02378 -0.006094 0.008009 -0.002463 -0.008353 -9.8e-05 0.012296 0.009991 -0.012983 0.006177 0.006192 0.01291 -0.021697 0.013428 -0.00683 0.010259 0.01565 0.000358 -0.016273 0.022214 -0.001429 0.004017 0.004548 0.017302 0.017607 0.034176 0.021973 0.017906 0.005294 -0.006247 0.00068 0.005059 -0.00136 0.033692 -0.011315 0.008937 0.004907 -0.012303 0.000936 -0.032485 -0.018071 0.017434 0.013764 0.005278 -0.011796 0.014281 0.002572 -0.013932 -0.021681 0.005608 -0.006355 0.007361 0.017314 -0.037326 -0.026305 -0.016189 0.010919 -0.020273 0.022506 0.006603 -0.009327 0.003892 -0.024198 0.012081 0.000908 -0.033374 0.020947 0.010289 -0.03788 -0.019784 0.008308 -0.001339 -0.002387 -0.012663
new_mask 0.014597 0.045067 -0.016583 -0.023207 0.002639 -0.004494 -0.003278 0.007981 0.024208 -0.033324 -0.011527 -0.034678 0.007382 -0.008379 0.027632 -0.050479 0.017181 0.026236 0.039548 -0.012289 -0.001669 0.010824 -0.010668 0.016035 0.033037 0.026606 -0.039582 0.004745 -0.000785 0.051166 -0.018663 -0.040219 0.005691 0.001865 0.012952 0.003503 0.009211 -0.023584 0.035168 -0.007475 -0.022837 0.020596 0.03459 0.042667 0.044394 0.062402 -0.001151 -0.00584 0.028897 -0.034508 0.014792 -0.001712 0.046613 -0.020419 -0.015832 0.022903 0.014759 0.04223 -0.021626 -0.015733 -0.02769 0.04891 0.01759 -0.001551 0.027085 0.038378 -0.001437 0.00018 0.003099 -0.047046 0.033047 0.020397 0.012452 0.054756 -0.033464 0.01828 0.002505 0.036004 -0.038002 -0.037142 0.005563 0.003266 -0.011469 -0.036156 0.00903 0.004629 0.026262 0.00459 -0.024097 -0.000298 -0.001317 0.052195 0.020706 -0.03311 -0.007586 -0.054413 -0.007344 0.012051 -0.023994 0.011608 -0.002115 -0.003237 -0.031234 0.007841 0.034567 0.015943 0.042931 -0.011794 -0.0352 -0.025091 -0.053606 0.027189 -0.007956 -0.000175 -0.00589 0.006672 0.007981 0.013567 -0.045621 0.070488 0.034601 -0.033986 0.00837 0.030848 -0.060266 0.009509 -0.067868 -0.029325
tok 0.006443 0.024662 -0.008537 -0.00989 0.006883 0.00976 0.014119 0.013449 0.016921 -0.01707 -0.00814 -0.011946 0.007442 -0.019423 0.011689 -0.016404 0.008132 0.000495 0.021567 -0.008182 0.003626 0.00114 0.011175 0.006936 0.013896 0.009396 -0.006227 0.002021 -0.00404 0.017118 -0.004109 -0.016347 0.006681 0.007329 0.016893 0.011938 -0.008511 -0.006023 0.011598 -0.006375 -0.015549 0.019965 0.006151 0.008423 0.026376 0.014257 0.01513 -0.002124 0.018249 0.002575 0.018707 0.004078 0.011912 -0.00674 0.008832 8.1e-05 0.006173 0.020682 -0.007842 -0.008465 -0.005944 0.025285 0.007147 0.004119 0.014753 0.022736 -0.001135 0.013673 0.004907 -0.013333 0.016437 0.009772 -0.002039 0.026266 -0.01424 -0.004527 -0.007127 0.013042 -0.006248 -0.006767 0.014956 0.010561 0.003303 -0.016547 -0.001702 0.002449 0.005901 0.007322 -0.016081 0.000973 -0.007369 0.012092 0.016171 -0.019872 -0.007337 -0.008278 0.005059 0.006059 -0.011377 0.005244 -0.002717 -0.007633 -0.020246 0.010472 0.005343 0.012816 0.010143 -0.018427 -0.027118 -0.012943 -0.016376 0.000842 0.004411 -0.001167 -0.007326 0.007396 -0.004192 0.019158 -0.009908 0.016456 0.016849 -0.011514 -0.004924 0.008223 -0.023411 0.00449 -0.020716 -0.01161
inst -0.001332 0.029006 -0.005078 -0.008545 -0.00752 -0.025388 -0.014211 -0.010961 0.006991 -0.026568 -0.006821 -0.02523 -0.000649 0.013683 0.020568 -0.02644 0.017195 0.030176 0.024245 -0.008538 -0.016427 0.021647 -0.019458 0.023346 0.014056 0.005336 -0.035841 -0.017503 -0.012093 0.030003 -0.009298 -0.024201 -0.007219 -0.019847 -0.019096 0.00577 0.04468 -0.020664 0.036366 -0.006605 0.017609 -0.013394 0.045031 0.041352 0.031736 0.036728 -0.010027 0.004598 0.013957 -0.040285 -0.000768 -0.028659 0.045873 0.001451 -0.018778 0.02466 -0.013891 0.033628 -0.005749 -0.015179 -0.035179 0.009575 0.021762 -0.003072 0.008547 0.005049 0.000241 -0.015631 0.005189 -0.025231 0.017456 0.011194 0.015813 0.013623 -0.022095 0.007281 0.010462 0.018395 -0.019238 -0.041449 -0.016565 -0.017641 0.000275 -0.01384 0.019969 0.004452 0.013382 -0.027366 -0.006763 -0.016182 -0.006881 0.047362 0.016321 0.011452 0.01313 -0.029045 -0.014818 0.007019 -0.001305 0.002288 0.001706 -0.003139 -0.00139 -0.009937 0.021071 0.014282 0.020573 0.025935 0.011223 -0.007956 -0.055295 0.019859 -0.031503 -0.011027 -0.00249 0.001337 0.029217 -0.008518 -0.02491 0.065954 0.009442 -0.037453 0.023848 0.021647 -0.034234 -0.004581 -0.041966 -0.000546
value -0.000288 0.000997 -0.002965 -0.000664 0.011069 0.000561 0.002138 0.004721 -0.005531 0.004917 -0.003973 0.001042 0.005505 0.009356 -0.007262 -0.001561 -0.000612 -0.003926 -0.007495 0.00211 0.002576 0.010645 0.003146 0.00702 -0.000904 -0.000511 0.005093 -0.005295 -0.00325 -0.006319 -0.000446 0.012477 0.00533 -0.001778 -0.002152 0.003815 -0.004167 0.003261 0.002018 -0.002037 0.004102 0.008167 0.003928 0.004896 0.001157 0.004145 0.00413 -0.000951 -0.00295 -0.010843 -0.002173 -0.008584 -0.003154 0.011264 -0.0004 -0.00222 0.008567 0.005626 -0.005028 -0.002568 -0.001958 0.003227 -0.003967 0.000549 0.004042 0.006236 0.002117 -0.007451 -4.1e-05 -0.011423 0.000137 0.005086 0.003551 -0.006343 -0.006819 0.000846 0.004663 -0.004341 -0.003079 -0.011554 -0.003472 -0.002095 -0.005268 -0.005567 -0.004178 -0.00794 -0.008876 2e-05 0.013182 -0.002781 0.001079 0.006562 -0.000325 -0.005266 0.006342 -0.005306 0.00621 0.005136 -0.002313 -0.000825 0.002782 0.00334 0.010285 -0.003165 0.007414 0.010726 0.007417 0.000705 -0.003003 -6.4e-05 -0.003508 -0.000677 -0.010615 0.006275 0.008911 -0.000456 0.002572 0.000315 -0.007659 -0.005343 -0.002003 0.004039 0.007738 0.004015 -0.001549 -0.005703 -0.002198 0.006642
<operator>.cast 0.003649 0.011322 -0.001052 -0.00478 0.007142 0.016566 0.003641 0.008497 0.008088 -0.003774 0.00233 0.005606 0.002493 -0.002984 -0.013463 0.00309 0.00758 -0.004195 -0.002891 -0.00355 0.004793 -0.015161 0.010801 -0.004099 -0.004037 0.003182 0.004743 0.01079 0.004536 -0.011494 -0.003463 0.00743 0.006225 0.013456 0.017963 -0.001884 -0.024862 -0.010075 -0.008155 0.012415 -0.009483 0.003349 -0.005561 -0.006317 -0.006425 0.00773 0.006233 -0.00507 0.004045 -0.000384 -0.002619 0.008651 -0.002777 9.4e-05 0.00646 -0.007336 0.020825 -0.004079 -0.004287 0.014616 0.011627 0.007747 -0.004357 -0.011023 -0.010139 0.002696 0.003193 0.003658 -0.002251 -0.001073 0.004609 -0.005188 0.006186 0.003486 0.001387 0.013021 -0.008329 -0.000921 -0.001295 0.012641 -0.00536 -0.004132 0.001007 0.011644 -0.01372 0.005614 -0.001553 0.00749 -0.004783 0.005186 -0.006734 0.000202 -0.001294 -0.008545 -0.00398 0.013302 0.009667 -0.011297 -0.009044 0.002329 -0.000904 0.00755 0.000491 0.013149 0.00205 -0.006709 -0.005706 -0.007964 -0.003474 -0.006989 0.005247 0.002713 0.016805 -0.007547 0.004589 0.00254 0.000215 0.014916 0.008168 -0.013496 -0.002124 0.012876 -0.009505 0.002844 0.004913 -0.001945 -0.004236 0.000125
<operator>.notEquals 0.013052 0.005542 -0.003399 -0.015892 0.008785 0.020079 0.015748 0.018475 0.020819 -0.005243 -0.009184 -0.014448 0.017934 -0.030581 0.000224 0.006686 -0.002231 -9e-05 0.003548 0.003785 0.019118 -0.026493 0.012141 -0.016171 0.012515 0.008423 0.008115 0.009552 -0.010786 0.000119 -0.012313 -0.003779 0.015698 0.014803 0.043019 -0.007668 -0.035975 0.001551 -0.01319 0.010707 -0.028351 0.036964 -0.019622 -0.025505 0.02649 -0.002441 0.009971 -0.005662 0.013505 0.035667 0.015972 0.030364 -0.020772 -0.017767 0.018649 -0.009747 0.007619 -0.002061 -0.008445 -0.001365 0.011554 0.009244 -0.008725 0.000581 0.011509 0.016069 -0.019114 0.012129 0.000231 0.009347 0.02016 0.001585 -0.01819 0.025048 -0.003184 -0.004198 0.00227 0.011118 0.016642 0.026509 0.027567 0.016347 0.001223 -0.009094 -0.00634 0.006415 -0.000498 0.035445 -0.02166 0.009943 0.003625 -0.009233 -0.00339 -0.035158 -0.024277 0.010823 0.012665 0.008012 -0.006319 0.009294 -0.000715 -0.009641 -0.015513 0.016115 -0.011979 0.003931 0.020763 -0.034025 -0.026192 -0.01791 0.010345 -0.019129 0.025411 -0.00777 -0.006161 0.01092 -0.024458 0.015126 0.002419 -0.03117 0.022254 0.01193 -0.040127 -0.012231 0.005834 0.000554 -0.003055 -0.009477
end -0.003276 0.021376 -0.015344 -0.006269 -0.004329 -0.014003 -0.010629 -0.006865 0.00327 -0.023349 0.003232 -0.016244 0.001541 -0.001044 0.016724 -0.016945 0.009737 0.026006 0.014138 -0.011833 -0.018517 0.013997 -0.020498 0.021111 0.012804 0.005491 -0.029146 -0.013973 -0.010491 0.024184 -0.003709 -0.01196 -0.000552 -0.00896 -0.021322 0.008211 0.023598 -0.018909 0.026821 -0.006924 0.010559 -0.009246 0.022483 0.033127 0.016959 0.034125 -0.00059 0.00313 0.018819 -0.033418 -0.004252 -0.021173 0.039843 0.005679 -0.014227 0.016815 -0.001797 0.025847 -0.003082 -0.004291 -0.02043 0.005772 0.024543 0.000617 -0.001306 0.004107 0.013451 -0.002132 0.008992 -0.019966 0.009104 0.006338 0.017074 0.006888 -0.008972 0.006921 0.006911 0.022996 -0.018074 -0.029513 -0.007671 -0.016728 0.003582 -0.009757 0.020897 0.004353 0.002242 -0.015168 -0.016302 -0.005394 -0.000372 0.034244 0.016501 -0.001456 0.017429 -0.032107 -0.013526 0.011843 -0.006506 -0.006715 0.00512 -0.002857 -0.000332 -0.007902 0.019212 0.002134 0.022288 0.01744 -0.004194 0.005425 -0.041227 0.021294 -0.021418 0.001267 -0.004452 -0.005783 0.018302 0.00013 -0.031238 0.055321 -0.001084 -0.024122 0.026534 0.019761 -0.031295 0.003611 -0.03124 -0.003419
face -0.028268 -0.051213 0.01143 0.036959 -0.012325 -0.025063 -0.027315 -0.035143 -0.040994 0.016382 0.019458 0.03236 -0.024193 0.013726 -0.015597 0.033807 -0.007255 -0.006294 -0.036043 -0.001929 0.004493 0.005136 -0.015607 -0.011513 -0.022402 -0.036908 0.023194 -0.018827 -0.002704 -0.045483 0.033965 0.020107 -0.029951 -0.021462 -0.045423 0.002164 0.030171 0.029807 -0.014895 0.014406 0.054301 -0.042673 -0.006475 -0.010566 -0.035868 -0.033018 -0.000727 0.015103 -0.042379 0.008651 -0.018446 -0.020841 -0.013326 0.036982 -0.009779 9.5e-05 -0.032587 -0.016695 0.003115 0.003451 -0.000589 -0.047178 0.007923 0.015119 -0.042959 -0.057636 0.014274 -0.016728 0.001239 0.033197 -0.037295 -0.015991 0.012206 -0.064625 0.028159 -0.01815 0.019713 -0.008279 0.020876 -0.005202 -0.029583 -0.026713 0.004325 0.026418 0.012937 0.000741 -0.013107 -0.020096 0.020341 -0.006091 0.003958 -0.015904 -0.009495 0.05353 0.046213 0.02645 -0.011235 -0.017573 0.02939 -0.017026 0.027047 0.002841 0.060068 -0.016446 -0.000562 -0.028609 -0.023512 0.04783 0.0585 0.037741 0.024892 -0.022765 -0.027241 -0.000804 0.002355 -0.030508 0.026847 -0.050454 0.025344 -0.020161 -0.049536 0.026637 0.022859 -0.010641 0.032594 -0.002842 0.040745 0.021008
layer -0.009812 0.006212 0.007255 0.007582 -0.009708 -0.020002 -0.005747 -0.008893 0.001201 -0.011984 0.003064 -0.004594 -0.00429 0.011871 0.012831 -0.006987 0.010419 0.013566 0.010167 -0.001473 -0.009801 0.020455 -0.019048 0.016651 0.003879 0.001654 -0.014036 -0.00942 -0.00269 0.011078 0.002899 -0.012635 -0.005334 -0.011071 -0.027063 0.006968 0.026722 -0.007545 0.017973 -0.007619 0.007698 -0.011633 0.022134 0.02581 -0.000317 0.016682 -0.013836 0.00295 -0.005888 -0.027522 -0.007751 -0.018511 0.02826 0.008421 -0.015956 0.00996 -0.01402 0.015106 -0.004088 -0.005952 -0.010563 -0.001601 0.015459 -0.002751 -0.006685 -0.004366 0.009526 -0.009447 0.003476 -0.014002 0.00128 0.001155 0.012788 -0.003142 -0.002095 -0.000273 -0.004829 0.009312 -0.014912 -0.025422 -0.013939 -0.01007 0.001469 0.001986 0.004219 -0.001069 0.00576 -0.019552 0.000839 -0.006035 -0.005883 0.018598 0.004612 0.023568 0.013101 -0.007367 -0.01087 0.006575 0.006348 -0.007887 0.004626 0.001006 0.010819 -0.008887 0.014003 0.002243 -0.000855 0.027357 0.011963 -0.001064 -0.028744 0.016341 -0.02069 -0.006926 0.008265 -0.007129 0.018047 -0.010348 -0.008245 0.031762 -0.001889 -0.01022 0.019865 0.00549 -0.016362 -0.001192 -0.026574 -0.00165
matrix -0.014292 -0.067019 0.014873 0.036314 -0.018848 -0.013588 -0.016451 -0.020327 -0.036622 0.035416 0.016206 0.038231 -0.02306 0.007207 -0.029079 0.037279 -0.01516 -0.017543 -0.032473 0.019561 0.008115 -0.006071 -0.000153 -0.010188 -0.024647 -0.028508 0.042429 -0.005551 0.013411 -0.054759 0.028298 0.033366 -0.012576 -0.020713 -0.030206 0.002872 0.009921 0.027278 -0.032533 0.007878 0.026852 -0.024555 -0.024191 -0.030644 -0.050775 -0.059024 0.002676 0.011886 -0.042861 0.029589 -0.024778 0.004104 -0.048822 0.023485 0.007279 -0.015663 -0.032255 -0.049255 0.01116 0.011071 0.015334 -0.047356 -0.013335 0.008948 -0.029377 -0.051606 0.001193 -0.009775 -0.002797 0.047749 -0.030843 -0.01495 -0.004194 -0.056686 0.029501 -0.018357 0.009075 -0.041898 0.027429 0.028494 -0.007935 -0.00824 0.001897 0.02895 0.000898 -0.003353 -0.023844 -0.014001 0.027655 0.00695 -0.00487 -0.041231 -0.014263 0.03885 0.021059 0.048416 -0.005639 -0.026813 0.020921 -0.016247 0.005085 -0.002337 0.036391 -0.010898 -0.026826 -0.023298 -0.037631 0.023731 0.044797 0.035285 0.044968 -0.030799 -0.008884 0.002248 0.017624 -0.012473 0.005609 -0.024772 0.037695 -0.056444 -0.046768 0.034437 0.006243 -0.020237 0.053949 -0.004424 0.076404 0.030001
next -0.003018 0.007641 -0.002743 -0.001263 -0.003959 -0.007434 -0.001385 0.003301 -0.007127 -0.015889 -0.001603 0.000215 -0.005031 -0.002574 0.007436 -0.00921 0.002601 0.014543 0.017269 -0.004699 -0.006918 0.004174 -0.010171 0.003884 0.003965 -0.005411 -0.011196 -0.008111 -0.003428 0.008607 0.001086 -0.006452 0.003396 -0.007201 -0.01625 0.012473 0.016352 0.000487 0.016908 -0.007346 0.000599 -0.002601 0.01365 0.018314 0.009511 0.005699 0.004165 0.000153 0.00643 -0.014846 -5.9e-05 -0.009077 0.020548 0.008224 0.000488 0.005175 -0.014014 0.0151 -0.000351 -0.00491 -0.00854 0.008918 0.012121 0.001401 0.003229 0.002941 0.007158 0.001659 0.005288 -0.009403 0.00577 0.006191 0.007006 -0.003712 -0.014155 -0.005686 -0.001645 0.005627 -0.00766 -0.012671 0.004483 -0.000862 0.009089 -0.008692 0.008799 0.00099 -0.000252 -0.010291 -0.009899 0.000476 -0.002608 0.019508 0.016852 0.006277 0.013756 -0.017017 -0.010801 0.003474 -0.003464 -0.000474 -0.003196 -0.002005 -0.002431 -0.000309 0.000481 0.003978 0.005597 0.012393 0.003279 0.005177 -0.021022 0.006414 -0.014929 0.00782 -0.004551 -0.000763 0.006527 0.002824 -0.015152 0.026912 -0.005354 -0.010936 0.016254 0.010693 -0.017445 -0.003594 -0.011227 0.00186
tcon 0.003649 0.005232 -0.000986 0.004182 -0.002571 -0.010239 -0.004625 -0.006311 0.006995 -0.008713 0.002328 -0.004132 -0.003583 0.005752 0.00324 -0.003199 0.003822 0.012658 0.003414 0.002509 0.000548 0.000332 -0.004891 0.005375 0.005575 0.002566 -0.010389 -0.006647 0.001018 0.007867 -0.001881 -0.002397 0.000609 -0.004759 -0.008612 0.000194 0.017704 -0.005956 0.008444 0.002543 0.010163 -0.003126 0.007719 0.004446 0.004921 0.01292 -0.001751 0.000398 0.002604 -0.016059 -0.005636 -0.010676 0.009223 -0.000149 -0.009754 0.007439 0.004855 0.01209 -0.006436 -0.002028 -0.010594 0.005383 0.000797 -0.005174 -0.005893 0.003575 0.002803 -0.004752 -0.00441 -0.011186 0.007458 -0.000782 0.00261 0.003798 -0.002635 0.003708 0.007045 0.007472 -0.006673 -0.013472 -0.00655 -0.001375 0.003148 0.003144 0.006891 -0.00128 0.007813 -0.006233 -0.008781 -0.002812 0.000279 0.012987 0.008855 0.009283 0.004706 -0.00738 -0.005345 0.00622 -3.8e-05 -0.001142 0.00684 0.006871 0.006052 -0.00178 0.004784 0.007943 -0.002043 0.005022 0.005647 0.000684 -0.010036 0.00559 -0.007621 0.001414 0.003339 -0.006576 0.009486 -0.004721 -0.010719 0.016003 -0.001084 -0.000893 0.006407 0.010199 -0.009412 -0.000869 -0.016503 -0.002492
temp_scale -0.005448 -0.013441 0.014396 -0.005411 0.00377 0.000815 0.014682 0.009021 -0.010195 0.009752 -0.000927 -0.00182 0.008604 0.01109 -0.00118 -0.003842 -0.01156 -0.014615 -0.001316 0.014022 -0.004508 0.007056 0.015942 0.000299 -0.0075 0.002581 0.006046 0.010026 0.016841 0.01026 -0.002014 0.00728 0.012281 0.001698 -0.011456 -0.009121 0.000534 0.000105 -0.002972 -0.016391 -0.017887 0.005181 0.000333 -0.004089 -0.017926 -0.029378 -0.001551 -0.003477 -0.012313 0.015643 -0.01154 0.000885 -0.013058 -0.00731 0.001915 -0.006629 -0.009509 -0.012294 0.006311 0.005928 0.012417 -0.006714 -0.016376 -0.003792 0.019628 0.010462 -0.013993 -0.004997 0.005715 0.008135 -0.00163 -0.003982 -0.010841 0.001181 0.003851 -0.012643 -0.016171 -0.041611 0.008363 0.012721 0.014248 0.013348 0.00117 0.002738 -0.011058 -0.006996 -0.006385 0.000296 0.012964 0.01645 0.00096 -0.026556 -0.010131 -0.000824 -0.021208 0.006538 -0.006984 0.013315 0.00941 -0.009203 -0.024691 0.008827 -0.021402 -0.008794 -0.019011 0.015689 -0.02259 -0.008542 0.007221 0.004127 0.01899 0.00419 -0.004954 0.02343 0.010055 0.009528 -0.01995 0.024634 0.006021 -0.028891 0.014009 -0.019161 0.003591 -0.0111 0.01096 -0.005311 0.025458 0.004801
FT_DivFix 0.001322 0.017288 0.007074 -0.014839 0.009305 0.006707 0.015721 0.012808 0.012409 -0.003774 -0.006359 -0.01774 0.009093 0.004562 0.008023 -0.019988 -0.001035 0.002524 0.008305 0.001118 -0.007823 0.007783 0.003407 0.012073 0.000218 0.007717 -0.013165 0.006644 0.005001 0.025793 -0.014642 -0.001637 0.017739 0.010587 0.002734 0.001338 0.002043 -0.010507 0.009447 -0.008086 -0.019415 0.002864 0.010724 0.014127 0.007003 0.011592 -0.007288 -0.003035 0.009083 -0.006501 -0.007267 -0.008766 0.006718 -0.010326 -0.011459 -0.000311 0.012495 0.01274 -0.003931 -0.003619 -0.001346 0.016316 9.6e-05 -0.014571 0.019667 0.015825 -0.001253 -0.006833 0.007731 -0.016083 0.013067 0.005218 -0.005688 0.01447 -0.01117 0.00053 -0.007207 -0.020439 -0.009067 -0.00283 0.004385 0.004569 -0.005158 -0.00841 -0.010236 -0.005188 0.003113 0.003109 -0.001115 -0.003949 -0.001999 0.00746 0.001695 -0.004298 -0.01312 -0.011993 -0.006243 0.019331 -0.003627 0.003638 -0.015122 0.009633 -0.026549 -0.003882 -0.001765 0.011486 -0.005407 -0.016282 -0.009716 -0.009358 -0.000788 0.0154 -0.00606 0.004946 0.007296 0.012185 -0.015089 0.027467 -0.009306 0.014463 0.027682 -0.025435 0.004325 0.00428 -0.010503 -0.004799 -0.017613 -0.006462
NULL 0.010255 0.030337 -0.002602 -0.018701 0.006012 -0.010011 -0.002635 0.005484 0.021683 -0.024587 -0.008748 -0.028977 0.009926 0.003734 0.024476 -0.027007 0.009286 0.01922 0.020899 -0.004012 -0.012734 0.010644 -0.005688 0.017057 0.020075 0.014806 -0.031414 -0.007125 -0.000946 0.032286 -0.014169 -0.024826 0.009085 -0.000349 0.006756 -0.002085 0.015823 -0.020822 0.026259 -0.001416 -0.010447 0.008051 0.033369 0.027432 0.029853 0.038528 -0.01308 -0.001444 0.018639 -0.032324 0.009099 -0.007954 0.03602 -0.000603 -0.013746 0.015337 0.002575 0.030708 -0.011429 -0.013177 -0.023155 0.024781 0.013355 -0.008843 0.020596 0.026787 -0.002182 -0.003014 -0.005126 -0.031997 0.022379 0.008456 0.004387 0.031274 -0.022112 0.004003 0.005651 0.019958 -0.019984 -0.023893 0.00033 -0.003344 0.001131 -0.014784 0.006883 0.000831 0.018483 -0.001851 -0.010721 -0.001694 -0.000466 0.029758 0.010708 -0.016824 -0.009167 -0.028204 -0.006448 0.0152 -0.010813 0.011548 -0.003674 0.001088 -0.015269 -0.003387 0.022666 0.016607 0.019857 9.5e-05 -0.01091 -0.021124 -0.035952 0.026762 -0.00667 -0.0107 -0.002041 0.000474 0.006487 0.006442 -0.025859 0.048216 0.021737 -0.024209 0.001453 0.017977 -0.030442 0.002674 -0.045707 -0.007799
comp -0.011983 0.001553 -0.00099 0.006095 -0.004418 -0.008944 -0.002833 -0.003526 -0.005799 -0.00698 -8.6e-05 -0.004168 -0.002766 0.005171 0.006123 -0.005043 0.002528 0.002568 0.003759 -0.004662 -0.010005 0.005042 -0.002359 0.009394 -0.000209 -0.006182 -0.011378 -0.00554 -0.004494 0.009896 0.003981 -0.007443 -0.002223 -0.005782 -0.020924 -0.000958 0.013557 0.000329 0.010544 -0.00387 0.009014 -0.011158 0.014762 0.019028 0.006243 0.007634 -0.003252 0.002498 -0.005226 -0.008566 -0.000975 -0.009324 0.0131 0.00073 -0.002821 0.006619 -0.008191 0.007643 -0.00428 -0.008483 -0.005283 0.001666 0.00882 0.004225 0.005608 0.003796 0.002862 -0.006207 -7.7e-05 -0.005879 0.000205 0.001537 0.00348 -0.000403 -0.00226 -0.007541 -0.002662 0.001375 -0.009546 -0.012335 -0.008426 -0.008252 -0.002004 -0.005285 0.006811 -0.001736 0.007289 -0.008108 0.00274 -0.001215 -0.002809 0.014976 0.007937 0.008117 0.007053 -0.010336 -0.011359 0.004197 -0.000232 -0.001772 0.001694 -0.000781 0.00108 -0.009446 0.006523 0.006018 -0.001716 0.008755 0.00419 -0.003517 -0.014512 -1e-04 -0.015136 -0.002085 -0.002042 0.001316 0.012911 -0.00041 -0.009348 0.021783 0.005365 -0.011882 0.014289 0.007153 -0.010615 -0.00337 -0.0066 0.00225
nextPtr -0.002751 0.021278 -0.008112 -0.012232 0.001126 -0.006272 -0.005422 0.003543 0.00343 -0.016263 0.006101 -0.012864 0.002438 -0.00656 0.012587 -0.013015 0.006177 0.018867 0.015511 -0.013304 -0.015937 0.005059 -0.006027 0.012894 0.011967 0.009705 -0.01945 -0.009176 -0.00178 0.020669 -0.002758 -0.004746 0.004669 -0.000862 -0.012391 0.006301 0.00362 -0.014225 0.025094 -0.008386 -0.00187 0.002832 0.01493 0.029469 0.021742 0.027632 0.002381 -0.003709 0.012161 -0.01748 -0.003142 -0.011017 0.026718 0.001957 -0.005309 0.007109 -0.001012 0.020544 -0.007404 -0.004376 -0.010654 0.00639 0.013441 -0.004621 0.01081 0.007404 0.004717 0.004191 0.006145 -0.017633 0.008872 0.00553 0.008904 0.009229 -0.009902 0.00277 0.00312 0.016303 -0.020227 -0.017484 -0.00283 -0.011066 -0.004198 -0.009291 0.006363 0.006829 -0.000587 -0.010071 -0.011413 -0.000797 -0.002082 0.015517 0.015342 -0.00618 0.002694 -0.021696 -0.010728 0.014652 -0.011239 0.004277 0.00051 -0.002503 -0.009747 -0.005482 0.010853 0.003191 0.014573 0.00508 -0.006311 -0.001452 -0.028084 0.015381 -0.012524 0.003289 -0.003148 0.005684 0.006954 0.008182 -0.02383 0.039242 0.006278 -0.022087 0.018285 0.008314 -0.023016 -0.003762 -0.023163 -0.00158
rq 0.002911 0.04635 -0.01496 -0.018174 0.011262 -0.023928 -0.000676 -0.009206 0.0141 -0.044157 -0.000479 -0.029451 0.010083 0.00448 0.031681 -0.031216 0.020816 0.033615 0.035463 -0.008768 -0.009665 0.018899 -0.019148 0.030933 0.028048 0.012105 -0.044215 -0.009433 -0.003644 0.046042 -0.010029 -0.029627 -0.003791 -0.015615 -0.01936 0.005775 0.033463 -0.018716 0.043436 -0.011481 0.006078 -0.004773 0.043672 0.05385 0.036128 0.054903 -0.014067 -0.013957 0.030411 -0.036184 0.008783 -0.023415 0.062098 -0.009237 -0.013847 0.033715 -0.004494 0.03541 -0.012036 -0.010665 -0.030343 0.0247 0.028043 -0.012742 0.01082 0.025679 0.01 -0.005883 0.00158 -0.048215 0.018446 0.00783 0.013605 0.02505 -0.024965 0.014827 -0.006557 0.039302 -0.032952 -0.048692 -0.007579 -0.013991 -0.002712 -0.021539 0.020116 -0.00557 0.019373 -0.013073 -0.020819 -0.020736 -0.000888 0.055099 0.026457 -0.013324 0.013511 -0.048569 -0.003714 0.006292 -0.000996 0.004512 0.008259 -0.00138 -0.013189 -0.00791 0.024216 0.017684 0.037253 0.018843 -0.015984 -0.019415 -0.050868 0.030707 -0.024702 -0.009313 -0.013438 0.005477 0.018131 -0.008926 -0.046869 0.083793 0.011292 -0.036214 0.02172 0.029905 -0.057327 0.004105 -0.06528 -0.015192
style 0.00593 0.040261 -0.010586 -0.015227 0.001314 -0.016973 -0.000224 0.000594 0.012976 -0.03368 -0.006093 -0.030522 0.002419 0.006511 0.032207 -0.035742 0.011463 0.02737 0.028713 -0.011766 -0.021979 0.021632 -0.0126 0.023149 0.023696 0.016244 -0.038998 -0.007174 -0.007949 0.042084 -0.013248 -0.036002 0.001888 -0.007349 -0.009156 -0.000184 0.027815 -0.02339 0.039147 -0.008544 -0.006267 0.008647 0.036796 0.046004 0.045583 0.046044 -0.012873 -0.001564 0.022953 -0.04406 0.011807 -0.023009 0.05072 -0.003168 -0.018496 0.018616 0.0004 0.040983 -0.010553 -0.013258 -0.0288 0.029253 0.019117 -0.007205 0.015501 0.019096 -0.000453 -0.002956 0.002882 -0.036182 0.025423 0.005708 0.015037 0.030171 -0.024619 0.015643 0.010483 0.026316 -0.025446 -0.043654 -0.008943 -0.011167 -0.004713 -0.019309 0.012867 0.004307 0.017026 -0.008834 -0.018396 -0.010344 0.001958 0.046195 0.015068 -0.006782 0.004469 -0.040386 -0.009403 0.015152 -0.010696 0.010505 0.001269 -0.004335 -0.014094 -0.004098 0.023858 0.016075 0.025696 0.008015 -0.013286 -0.01945 -0.059886 0.031555 -0.020162 -0.007834 -0.009634 0.006929 0.010916 0.000436 -0.038099 0.069945 0.015525 -0.04173 0.016032 0.024654 -0.045761 0.001573 -0.060181 -0.011208
<operator>.and 0.010176 0.028508 -0.007786 -0.015799 0.002826 0.010975 0.005135 0.010343 0.021638 -0.013323 -0.004889 -0.016856 0.013423 -0.003337 0.007355 -0.027621 0.008223 0.006332 0.012758 0.000312 -0.002439 0.003784 0.002919 0.013347 0.012908 0.017039 -0.017718 0.00559 0.002125 0.025057 -0.018302 -0.018461 0.009918 0.011972 0.015881 -0.004647 -0.007796 -0.022088 0.014476 -0.002206 -0.019319 0.013112 0.019009 0.013565 0.021434 0.031642 -0.0055 -0.00345 0.020779 -0.021507 0.013156 -0.002698 0.02395 -0.00751 -0.010471 0.00912 0.025029 0.028321 -0.006571 0.001973 -0.002775 0.031242 0.004118 -0.009629 0.015353 0.021815 0.001706 0.009763 -0.000794 -0.030806 0.014111 0.008389 0.004192 0.026154 -0.012788 0.015868 -0.002914 0.010308 -0.01728 -0.008182 0.007182 -0.002895 -0.002331 -0.01161 0.000616 0.009859 0.006806 0.010439 -0.00867 0.000183 -0.002121 0.020131 0.011395 -0.024288 -0.008771 -0.016364 0.007931 0.004089 -0.011523 0.003993 -0.0064 0.004293 -0.013312 0.008883 0.016667 0.009756 0.025994 -0.00529 -0.018484 -0.017127 -0.027474 0.024267 0.009123 -0.002746 0.00337 0.004594 -0.001822 0.016524 -0.0149 0.032303 0.01303 -0.014472 0.001647 0.011111 -0.029662 0.000421 -0.033284 -0.009133
<operator>.lessThan -0.004641 -0.012493 -0.000939 0.007983 0.003624 0.004234 0.006545 -0.006834 -0.004096 0.00511 0.002896 -0.000495 0.006921 -0.004173 -0.000918 0.008535 -0.009868 0.003152 -0.008526 -0.001244 0.00256 -0.004903 0.001752 -0.005794 -0.010104 -0.003999 0.011218 0.002485 0.001972 0.001014 0.004476 0.002547 -0.002744 0.00286 0.000258 0.004061 -0.004782 0.004921 0.001274 0.001678 -0.007123 0.004612 -0.009419 -0.006483 -0.002223 -0.009104 0.006178 0.001361 -0.004813 0.011927 0.002765 0.001884 -0.010826 -0.005795 -0.000307 -0.002754 0.001828 -0.006118 0.001261 0.002749 0.004963 -0.007551 -0.005681 -0.004745 -0.000282 0.002477 -0.009079 -0.006426 0.004077 0.009343 0.000805 -0.00093 -0.009242 -0.00587 0.006808 0.001717 -0.000161 -0.002341 0.005685 0.012531 0.005145 -0.002307 -0.000904 0.00461 -0.005087 -0.003938 -0.010585 0.005028 -0.002967 0.007743 0.0042 -0.0104 -0.005284 -0.003503 -0.003395 0.006908 0.000524 0.002317 0.00109 0.002397 0.002548 -0.00214 -0.004452 -0.000587 -0.008416 -0.001025 -0.002317 -0.007083 0.000858 0.000733 0.011333 -0.014012 -0.000418 0.000465 -0.004232 0.005357 -0.010051 -0.000993 0.010094 -0.011396 0.00169 0.001185 -0.008037 -0.01274 0.010408 0.006435 0.010113 0.001897
<operator>.logicalAnd 0.004864 -0.000622 -0.009848 -0.002066 0.008653 0.012913 0.00657 0.001843 0.006907 0.004836 0.001425 -0.008142 0.006271 -0.008997 0.002277 -0.003457 0.001065 -0.006385 0.000835 7.5e-05 0.008876 -0.013055 0.004583 -0.012964 0.005712 0.005891 -0.001767 0.002967 -0.001898 0.002856 -0.008098 -0.007993 0.001834 0.012646 0.022056 -0.008512 -0.021984 0.003441 -0.00794 0.01031 -0.01079 0.009461 -0.011253 -0.013994 0.016726 0.007244 0.004724 -0.001088 0.015465 0.017415 0.011437 0.015261 -0.008653 -0.012181 0.005853 -0.003915 0.005542 -0.005295 -0.004428 -0.002873 0.005297 0.01105 -0.006791 0.005573 0.005432 0.006447 -0.012205 0.018049 -0.004904 0.001096 0.009656 0.000556 -0.016165 0.006177 -0.004354 -0.005484 0.002544 0.010832 0.01078 0.009754 0.008016 0.013583 -0.006722 -0.009609 0.001968 0.00384 0.005183 0.020482 -0.014681 0.007068 -0.000792 -0.007984 -0.002986 -0.01131 -0.013055 0.013225 0.007162 -0.0027 -0.002047 0.013721 0.00874 -0.011635 -0.008129 0.015772 -0.00165 0.001585 0.010461 -0.01941 -0.022739 -0.007556 0.011806 -0.014868 0.018497 0.000807 -0.011324 0.007453 -0.004401 -0.005819 0.007323 -0.009748 0.012736 0.006474 -0.022247 -0.006137 0.004232 -0.001532 0.003454 -0.008299
<operator>.logicalOr 0.012211 0.025883 -0.012821 -0.016777 0.007269 -0.001112 0.00815 0.012249 0.025689 -0.011668 -0.002987 -0.027194 0.012732 -0.004792 0.015398 -0.023282 0.004184 0.004824 0.022139 -0.003216 -0.005256 -0.000221 0.000235 0.00691 0.027913 0.015649 -0.020129 -0.003749 -0.002771 0.032083 -0.008864 -0.023914 0.004343 0.001891 0.022455 -0.01028 -0.007091 -0.012015 0.019733 0.000983 -0.013816 0.026286 0.014296 0.016892 0.037813 0.03365 -0.009838 -0.001979 0.024857 -0.01471 0.017803 0.004107 0.021431 -0.00572 -0.005555 0.006754 -3.7e-05 0.019147 -0.006673 -0.004924 -0.014888 0.029981 0.002775 -0.004223 0.023244 0.023305 -0.001908 0.008024 -0.006299 -0.02865 0.021856 0.005157 -0.00653 0.035077 -0.021251 0.004177 0.005705 0.022741 -0.018846 -0.011492 0.01124 0.0073 0.005135 -0.017212 0.006927 -0.002549 0.020986 0.017518 -0.019686 0.004658 0.00251 0.014751 0.01372 -0.019181 -0.013505 -0.018418 -0.001997 0.003938 -0.020532 0.016476 0.003467 -0.012316 -0.015713 0.008091 0.012243 0.008788 0.031428 -0.012007 -0.026804 -0.030493 -0.01764 0.012773 0.008648 -0.005967 -0.005612 0.002525 -0.006201 0.00583 -0.021693 0.035972 0.017247 -0.016865 -0.012756 0.011104 -0.026668 0.005051 -0.041156 -0.013786
UseCounter::count -0.001737 0.001083 0.001924 -0.00078 -0.006852 -0.007506 -0.004537 -0.005445 0.004581 -0.01181 -0.004463 -0.005714 0.000177 0.003828 0.008841 -0.008777 0.004438 0.007373 0.008652 -0.003264 -0.010934 0.008898 -0.008082 0.007314 0.007214 -0.00133 -0.007132 -0.002279 0.001484 0.006807 -0.006364 -0.008765 -0.000979 0.001166 -0.00304 0.000657 0.002696 -0.005326 0.018133 0.001867 0.002286 -0.011141 0.004276 0.010085 0.008107 0.014005 -0.00675 -0.003999 0.009988 -0.013661 -0.003912 -0.014178 0.01662 0.001559 -0.012658 0.009253 -0.003914 0.014804 -0.001462 -0.002213 -0.014935 0.00428 0.006584 0.000314 -0.00515 0.000632 -0.001722 -0.001912 0.001779 -0.015227 0.006999 -0.002721 0.001959 0.006798 -0.005391 0.006047 0.000303 0.006183 -0.012226 -0.01714 -0.005396 -0.005257 -0.000307 -0.003279 0.00134 0.001025 0.00296 -0.006849 -0.004642 -0.003584 -0.000925 0.015607 -0.00576 -0.000812 -0.000383 -0.010669 -0.000141 0.002528 -0.003619 -0.002503 0.005133 -0.001674 -0.006383 -0.002571 0.001074 -0.002123 0.004815 0.007075 0.001104 0.003826 -0.007037 0.012974 -0.000898 -0.00972 -0.001236 -0.003765 -0.001047 -0.003265 -0.011952 0.026706 0.005439 -0.013029 0.007262 0.009843 -0.013898 -0.000234 -0.014626 0.000772
cpu_buffer 0.005502 0.034164 -0.004404 -0.018299 0.005578 -0.011322 0.003886 -0.00195 0.018088 -0.017731 -0.002362 -0.023988 0.002921 0.002066 0.018968 -0.028438 0.005302 0.012793 0.022433 -0.015657 -0.012926 0.004554 0.000457 0.013112 0.016868 0.014851 -0.023678 0.001134 -0.00198 0.035206 -0.000313 -0.02487 0.004021 -0.000698 -0.007974 -0.001867 0.016183 -0.018725 0.020223 -0.012909 -0.006373 -0.000642 0.025896 0.027421 0.026488 0.025443 -0.004084 -0.003297 0.019582 -0.024184 0.00444 -0.009045 0.02987 -0.002115 -0.018267 0.015856 0.008772 0.030584 -0.01217 -0.003701 -0.01309 0.017141 0.013857 -0.009862 0.019289 0.016946 -0.005161 -0.005868 0.001808 -0.02576 0.00826 0.003155 0.012069 0.02385 -0.012181 0.016708 -0.001292 0.016893 -0.020557 -0.022449 -0.003927 -0.00663 -0.000111 -0.014733 0.005838 -0.001088 0.011748 -0.004109 -0.007887 -0.013333 -0.003744 0.035193 0.013106 -0.016161 -0.000193 -0.032079 -0.007336 0.018354 -0.015507 0.008024 -0.002841 0.00057 -0.01604 -0.004305 0.021895 0.017112 0.014064 -0.001078 -0.011707 -0.014817 -0.038808 0.029595 -0.012965 0.001613 -0.00276 0.003084 0.010806 0.010399 -0.017393 0.051928 0.018384 -0.021584 0.011971 0.021671 -0.031668 0.001599 -0.044195 -0.010173
dict -0.016158 -0.032394 0.011157 0.02282 -0.002769 -0.021543 -0.021652 -0.020338 -0.02742 0.011739 0.008453 0.024699 -0.012171 0.00327 -0.011323 0.024517 -0.009107 -0.003058 -0.02397 0.007186 0.006103 -0.001623 -0.011804 -0.005472 -0.012674 -0.025081 0.016974 -0.012261 -0.004431 -0.040711 0.020211 0.019228 -0.017075 -0.00706 -0.029397 0.005041 0.016966 0.01895 -0.018012 0.011733 0.034185 -0.023238 -0.017142 -0.014524 -0.024332 -0.027249 0.004475 0.012483 -0.028171 0.013152 -0.009525 -0.005223 -0.017409 0.01979 0.003921 0.001421 -0.023782 -0.022299 0.007077 -0.006984 0.005582 -0.029699 0.004366 0.012743 -0.026059 -0.035906 0.013596 -0.003495 -0.005502 0.031072 -0.027788 -0.00293 0.001662 -0.039874 0.017587 -0.016012 0.008627 -0.006208 0.019599 0.006841 -0.014538 -0.009023 0.006787 0.021146 0.009809 0.003574 -0.00152 -0.008032 0.017644 -0.00253 0.009194 -0.014162 -0.005457 0.034536 0.021735 0.0248 -0.000614 -0.01207 0.013217 -0.011148 0.02182 -0.002978 0.034189 -0.012118 -0.005806 -0.026085 -0.018854 0.019057 0.032468 0.020651 0.013714 -0.026303 -0.009565 -0.008649 -0.002473 -0.011441 0.01783 -0.03345 0.013061 -0.018199 -0.037253 0.020863 0.001958 -0.00648 0.027903 -0.004634 0.032973 0.012528
document 0.001827 0.003136 -0.000132 -0.002781 2e-05 -0.007725 -0.005074 -0.000732 0.005962 -0.011778 -0.003805 -0.006673 9.4e-05 0.005403 0.008648 -0.004214 0.003455 0.011713 0.006177 -0.007783 -0.011616 0.007333 -0.005865 0.004472 0.011227 -0.002491 -0.010811 -0.005443 0.003213 0.004369 -0.006281 -0.009107 -0.001728 -0.000412 -0.000288 -0.002542 0.003209 -0.001952 0.015096 0.000634 0.003725 -0.008391 0.006927 0.01118 0.009006 0.013172 -0.00232 -4.6e-05 0.00321 -0.014779 -0.001447 -0.010577 0.020315 -0.002388 -0.011737 0.010342 -0.006986 0.015223 -0.004724 0.001023 -0.01034 0.001408 0.009862 -0.000598 -0.004894 -0.000147 -0.002427 0.000359 0.004795 -0.007779 0.006915 0.001561 0.000581 0.000596 0.001046 0.010568 0.00373 0.006695 -0.009041 -0.014642 -0.000969 -0.005418 0.003427 -0.000627 -0.001966 0.002448 0.003726 -0.00661 -0.008474 0.000429 -0.003871 0.011638 -0.005253 0.00023 -0.001937 -0.00994 -0.003174 0.002556 -0.002227 -0.006492 0.003723 -0.005205 -0.007751 -0.004719 0.001975 -0.00629 0.001554 0.003726 0.001221 0.003331 -0.010884 0.00947 0.001107 -0.011783 -0.001233 0.000255 7.9e-05 -0.007773 -0.010454 0.025929 0.009955 -0.013684 0.011065 0.008949 -0.01672 -0.001261 -0.015924 -0.003263
export_index_table 0.00324 0.013488 -0.00424 -0.014256 0.000483 -0.004838 -0.004088 0.001603 0.011756 -0.01808 -0.007923 -0.009465 -0.002577 0.001499 0.00654 -0.015204 0.011943 0.014201 0.01527 0.002168 -0.001612 0.000776 -0.00154 0.003424 0.001007 0.007345 -0.019222 -0.003627 -0.004507 0.012809 -0.008223 -0.005395 0.003901 -0.002824 -0.00055 -0.003207 0.016822 -0.013217 0.013331 0.001508 0.002035 -0.002395 0.019346 0.02372 0.018328 0.016334 -0.007063 0.004749 0.012031 -0.021178 0.00979 -0.010063 0.018562 0.004451 -0.013601 0.004716 0.005233 0.021341 -0.005175 -0.006452 -0.010649 0.008766 0.005046 -0.006158 0.001326 0.01609 0.003035 -0.004286 0.002699 -0.010724 0.007862 0.006285 0.008559 0.016509 -0.010861 0.009771 0.005677 0.020853 -0.017238 -0.020859 -0.00429 -0.006895 0.003515 -0.010401 0.002194 0.007732 0.006077 -0.005546 -0.012683 -0.00804 -0.004487 0.022683 0.002664 -0.001352 0.006157 -0.016057 -0.00219 0.004036 -0.008509 0.003079 -0.002686 -0.001282 -0.000851 0.006749 0.018843 0.004544 0.01246 0.003323 0.000233 -0.004855 -0.024075 0.015927 -0.00872 -0.004439 0.003954 -0.006364 0.010356 0.002302 -0.016929 0.024842 0.007673 -0.011776 0.013416 0.011932 -0.023315 0.004291 -0.027692 -0.00451
flags 0.000217 0.028686 -0.015021 -0.012 0.001862 -0.011711 -0.002485 -0.003166 0.006419 -0.019218 -0.001804 -0.0165 0.007487 0.000925 0.012874 -0.016506 0.011333 0.021729 0.013517 -0.009329 -0.014173 0.006262 -0.011356 0.009241 0.015801 0.00593 -0.033197 -0.003508 -0.004361 0.024973 -0.002777 -0.019181 -0.001382 -0.003714 -0.011337 0.003057 0.02197 -0.007574 0.030414 -0.003957 0.010545 -0.006554 0.02653 0.031826 0.021529 0.032242 -0.007855 -0.004043 0.020929 -0.02954 0.0066 -0.006137 0.032073 -0.000277 -0.009876 0.015835 -0.008912 0.017655 -0.01141 -0.006576 -0.023291 0.013269 0.020822 -0.007963 0.004424 0.01087 0.003224 -0.004386 -0.002017 -0.027519 0.010704 0.006699 0.008783 0.013558 -0.018905 0.011795 -0.009002 0.024299 -0.024729 -0.032357 -0.003481 -0.006147 0.008321 -0.012511 0.015085 0.007074 0.012061 -0.011077 -0.014202 -0.011905 -2.8e-05 0.031361 0.015626 -0.001581 0.009665 -0.025613 -0.009858 -0.001532 0.000237 0.001701 0.00999 -0.003196 -0.000765 -0.003694 0.016009 0.004255 0.020778 0.014336 -0.009156 -0.012528 -0.032761 0.023112 -0.015038 -0.008176 -0.009942 0.000119 0.011111 -0.006213 -0.03544 0.047669 0.000657 -0.020573 0.012966 0.023896 -0.034542 0.00383 -0.036606 -0.011865
locked 0.012111 0.035611 -0.006012 -0.021694 0.004305 -0.007147 0.010156 0.003058 0.021117 -0.022518 -0.007201 -0.029149 0.003537 -0.001924 0.01976 -0.033827 0.006883 0.014999 0.028289 -0.018753 -0.008838 0.008054 -0.003428 0.01516 0.018814 0.018918 -0.026449 0.002092 -0.007248 0.038825 -0.004352 -0.032592 0.002279 -0.000773 -0.001647 0.004673 0.018327 -0.026195 0.020621 -0.012822 -0.004968 0.006692 0.025313 0.0349 0.028836 0.035699 -0.006122 -0.001785 0.028168 -0.027658 0.01164 -0.009502 0.037011 -0.004861 -0.01716 0.018227 0.008042 0.032289 -0.016195 -0.010619 -0.00992 0.024513 0.01195 -0.012677 0.018125 0.026819 -0.004328 -0.00931 0.002051 -0.032417 0.013852 0.00506 0.008912 0.032386 -0.018315 0.022586 -0.001614 0.018174 -0.023535 -0.024843 -1.6e-05 -0.004827 -0.005537 -0.019863 0.006877 -0.001548 0.013084 -0.008132 -0.012116 -0.013509 -0.004239 0.041035 0.016813 -0.015078 -0.003989 -0.036163 -0.001344 0.016448 -0.016308 0.006316 -0.0047 -0.000793 -0.020566 0.00077 0.020479 0.017611 0.020783 9.6e-05 -0.014433 -0.022187 -0.047324 0.030417 -0.011022 0.000315 -0.001675 0.005457 0.01286 0.014694 -0.022286 0.056564 0.025987 -0.028815 0.014558 0.026209 -0.039565 -0.002207 -0.048147 -0.009318
m_disabled 0.00025 0.002678 -0.006266 -0.003667 -0.002741 -0.004362 -0.000528 -0.005081 -0.004112 -0.008791 -0.002904 -0.005194 -0.002914 -0.001741 -0.002103 -0.000362 0.008866 0.009819 0.004532 -0.005809 0.001762 0.000132 -0.005147 0.001468 -0.001393 0.000779 -0.005787 0.001375 0.002554 -0.000504 0.006367 -0.003667 -0.006341 0.00333 -0.01009 -0.000457 0.003787 -0.003357 -0.001125 0.000421 0.001497 -0.004768 0.00452 0.00778 0.001028 -0.004222 -0.00499 -0.005523 0.000228 -0.008409 0.000968 0.001801 0.000186 0.003322 0.003375 0.005931 -0.004188 0.002232 0.001251 -0.004894 -0.006099 -0.003281 0.00596 -0.006086 -0.000616 -0.005327 0.008634 -0.006119 0.007085 0.003725 -0.001457 0.000909 -0.005327 0.006975 0.00215 0.005376 -0.005243 0.008634 -0.001229 -0.002787 -0.012553 -0.010085 -0.001479 -0.003495 0.008317 -0.002755 -0.000858 -0.002329 0.001424 0.000903 -0.003922 0.008007 -0.000737 0.002161 0.00075 -0.006685 0.001141 -0.003412 0.007445 -0.001612 0.000197 0.000276 -0.001443 -0.003031 0.006296 0.002921 -0.003628 0.00952 0.006938 -0.002442 -0.007733 0.006912 -0.00761 0.006841 0.00694 -0.007013 0.005281 0.001942 -0.00094 0.010343 -0.000519 -0.004348 0.011152 0.003492 -3.6e-05 0.000832 -0.006263 0.002621
m_isReadOnly 0.000518 0.0006 -0.001557 -0.000957 -0.009221 -0.003415 -0.006354 0.002289 -0.006406 -0.011792 0.004417 -0.004931 -0.004128 -0.006638 0.003629 0.005918 -0.008781 -0.002352 0.008292 0.001512 -0.005603 -0.000353 -0.003868 0.003236 -0.008259 -0.005582 -0.004815 0.003174 -0.001918 0.000241 0.002288 0.002978 0.003149 -0.003809 -0.009975 0.009642 0.006206 0.000144 0.002197 -0.00314 0.007188 -0.003396 0.00196 -0.005074 -0.004201 -0.003375 -0.003438 0.001239 -0.004799 -7.2e-05 -0.006234 -0.009462 0.005941 0.00074 -0.007141 -2.5e-05 -0.006898 0.005562 -0.002747 0.008521 0.003733 -0.000801 -0.000581 -0.003273 -0.001984 0.002459 -0.004585 -0.010751 -0.005125 0.000228 -0.001637 -0.002062 0.008256 0.004527 -0.004813 -0.005041 -0.004969 -0.002996 -0.005057 0.002846 -0.006802 -0.000999 -0.001594 0.000342 0.002499 0.003378 -0.005829 -0.005812 0.005926 -0.001631 -0.004798 0.008228 -0.002297 -0.004695 -0.001752 -0.000753 0.002131 0.002704 0.00366 -0.010279 -0.003041 3.5e-05 -0.003076 -0.009201 -0.008787 -0.005861 0.00103 -0.001487 0.005329 0.002842 -0.004933 -0.000346 -0.001005 0.003409 -0.007239 0.004462 0.005151 -0.00315 -0.007869 -0.000949 -0.000934 -0.001201 -0.002981 -0.001066 0.0022 -0.002363 -0.001465 0.000511
m_isRequired 0.003407 0.004315 0.000568 -0.006317 -0.008012 -0.010047 -0.009574 -0.000724 -0.007979 0.000242 0.002758 -0.006368 -0.003096 -0.001468 0.001559 -0.004431 0.002651 0.009556 0.007161 0.002026 0.002372 -0.001441 0.001418 -0.004311 -0.004183 0.00096 0.002076 -0.002292 0.002525 0.002722 0.007318 -0.006429 -0.004403 -0.010661 -0.012982 0.002681 0.010357 -0.00413 0.00059 -0.004588 0.002153 -0.003507 0.005933 -0.001477 -0.007133 -0.006276 0.001018 -0.001287 -0.006097 -0.003736 -0.009933 -0.008885 0.010841 0.002912 -0.001161 0.004624 -0.002114 0.001883 -0.002518 0.002094 -0.01186 -0.011876 0.002563 -0.004183 -0.004831 -0.002625 0.00112 -0.003355 0.003743 0.007072 -0.002851 -0.004038 0.008446 0.004528 0.00553 0.003185 -0.007584 -0.000706 -0.000256 -0.001596 -0.002492 0.002375 0.001416 0.006661 0.00706 0.004861 -0.00335 -0.009243 -0.003782 -1.4e-05 0.000571 0.003918 0.009531 0.005538 0.012609 -0.008204 -0.004082 -0.007203 0.001421 0.000387 -0.005409 0.001071 0.000205 -0.004332 -0.005013 -0.003687 -0.007245 0.009288 0.011776 0.011102 -0.007837 0.014044 -0.006775 0.001578 0.000868 -0.000812 0.001958 0.000587 0.001958 0.005961 -0.008619 -0.005684 0.003345 -0.0045 -0.001211 -0.004077 -0.004484 -0.004309
opaque -0.008077 0.007388 -0.000938 0.002094 -0.003599 -0.01079 -0.00959 -0.007984 -0.002125 -0.011324 -0.006972 -0.003024 -0.002674 0.009729 0.012476 -0.006039 0.009927 0.012073 0.014531 0.001348 -0.005491 0.010404 -0.020353 0.017032 0.008269 -0.006698 -0.01827 -0.007459 0.00163 0.006266 -0.003985 -0.012995 -0.002386 -0.002884 -0.015684 0.00087 0.023123 -0.006553 0.020973 0.002294 0.015311 -0.013229 0.021676 0.018421 0.00459 0.010867 -0.001179 -0.000519 0.000727 -0.016723 0.005694 -0.022544 0.019843 0.00458 -0.019198 0.015399 -0.012311 0.016238 -0.008716 -0.007993 -0.011095 0.000599 0.007703 -0.007916 -0.001439 -0.004063 0.011275 -0.009602 -0.00388 -0.016785 -0.002722 -0.000969 0.01252 -0.000868 -0.008488 0.005683 0.001318 0.007676 -0.019771 -0.022455 -0.011206 -0.011462 0.004105 -0.009532 0.002705 0.00443 -0.00064 -0.012424 -0.005064 -0.006156 0.007205 0.026145 0.010221 0.002308 0.01044 -0.012767 -0.009294 -0.0037 0.001236 0.00134 0.009486 0.004739 0.001309 -0.003566 0.020457 0.006458 0.003803 0.013488 -0.000797 -0.000652 -0.028445 0.007003 -0.019827 0.003253 -0.006497 -0.003809 0.018422 -0.010074 -0.018565 0.040589 -0.000475 -0.015821 0.01813 0.015582 -0.019574 0.008181 -0.017713 0.003428
ret -0.002963 0.015878 -0.005287 -0.004136 -0.002046 -0.005583 0.002355 -0.003238 0.000655 -0.0108 -0.006516 -0.013746 0.001786 -0.001373 0.006715 -0.016644 0.007116 0.002768 0.017295 -0.002658 2.6e-05 0.004627 -0.007951 0.00073 0.007356 0.007733 -0.0134 0.006248 0.003375 0.015931 -0.00196 -0.007341 0.002571 0.002762 -0.000891 0.002007 0.004303 -0.005663 0.014271 -0.003394 -0.002448 0.00411 0.013567 0.022073 0.013906 0.021345 -0.001051 -0.006092 -0.000302 -0.010759 0.002352 0.000878 0.011788 -0.001874 0.000617 0.008575 -0.003682 0.011827 -0.010956 -0.000509 -0.008205 0.014731 0.008324 -0.002599 0.005314 0.008937 -0.003529 -5.8e-05 -0.000569 -0.013829 0.002485 0.00845 0.005913 0.015857 -0.012911 0.005173 -0.003669 0.002891 -0.016988 -0.012462 0.001087 0.005576 -0.0047 -0.017156 0.001315 -0.005374 0.010042 -0.002879 -0.003551 -0.000561 -0.005029 0.017894 0.007565 -0.001773 -0.001492 -0.016621 -0.004488 0.005377 -0.004023 0.009035 -0.003533 -0.002651 -0.004938 0.002949 0.007715 0.005515 0.011903 0.004986 -0.005325 -0.006953 -0.02157 0.014263 -0.00131 0.004607 0.003492 0.004901 0.002821 0.004163 -0.019672 0.024524 0.010072 -0.013718 0.009912 0.008273 -0.021143 0.004653 -0.020257 -0.010454
sBlk -0.008075 -0.020654 0.009663 0.020369 -0.01048 -0.034463 -0.032522 -0.032875 -0.021771 0.00657 0.014974 0.016086 -0.024753 0.031704 -0.014372 0.01583 0.002281 0.00777 -0.022163 -0.006402 -0.005771 0.018139 -0.029257 0.00831 -0.005148 -0.015936 0.004028 -0.017884 0.01037 -0.011402 0.020512 0.003154 -0.022755 -0.015091 -0.037809 0.009385 0.033687 0.022405 0.007535 -0.002413 0.049417 -0.03096 0.008445 0.007109 -0.032677 -0.004981 -0.005142 0.009921 -0.037255 -0.0133 -0.016188 -0.026198 -0.002007 0.011668 -0.016045 0.025233 -0.041828 -0.006781 0.011066 -0.001184 -0.010594 -0.030806 0.011382 0.008279 -0.030531 -0.043789 0.023883 -0.024433 -0.000535 0.019326 -0.020245 -0.010949 0.007231 -0.031092 0.013929 -0.004169 0.012434 -0.007864 0.01254 -0.019735 -0.029569 -0.023244 0.004213 0.007333 0.023826 -0.00559 0.00951 -0.02491 0.013455 -0.007864 0.005229 -0.00034 -0.002656 0.026299 0.04329 0.006989 -0.017187 -0.016672 0.024803 -0.016616 0.027767 0.005254 0.032616 -0.031075 0.0044 -0.004831 -0.011204 0.04237 0.048571 0.016846 0.002604 -0.004777 -0.035815 -0.001236 -0.006889 -0.023318 0.034771 -0.04144 0.006382 0.00554 -0.035348 0.014096 0.018868 -0.000904 0.011057 -0.002068 0.005833 0.010993
table_start 0.007058 0.017028 -0.01494 -0.013743 -0.000436 -0.004037 -0.000687 0.001093 0.015275 -0.022147 -0.003459 -0.010737 -0.003676 -0.002336 0.015202 -0.012838 0.007086 0.017823 0.012135 -0.00366 -0.00655 -0.001008 0.005384 0.004605 0.006544 0.007366 -0.020552 -0.001154 -0.004897 0.018537 -0.00819 -0.016571 0.001182 0.002522 0.005833 -0.0016 0.002415 -0.023662 0.018034 -0.003989 -0.010041 0.001959 0.014679 0.013808 0.019807 0.027059 0.001159 -0.002969 0.017065 -0.01634 0.010062 0.001032 0.024456 -0.002929 -0.007118 0.008602 0.008266 0.021711 -0.013136 -0.004526 -0.014434 0.017709 0.006193 -0.003131 0.014704 0.021563 0.003845 0.001278 0.007733 -0.021508 0.003516 0.004675 0.015915 0.020816 -0.017167 0.008264 -0.002574 0.022736 -0.020341 -0.00971 0.002057 -0.002401 0.00282 -0.00719 -0.000432 0.008657 0.003431 -0.002779 -0.014838 -0.003591 -0.00323 0.017656 0.01029 -0.009121 -0.00071 -0.018521 0.005024 0.008431 -0.013797 0.00567 -0.000653 -0.001452 -0.000402 0.006858 0.017595 0.003162 0.015789 -0.002838 -0.008947 -0.006389 -0.030653 0.019018 0.0008 -0.003498 -0.000106 0.004792 0.001217 0.004553 -0.018214 0.027468 0.007965 -0.010387 0.004606 0.007653 -0.022243 0.002672 -0.031538 -0.004093
ud -0.001005 0.007201 -0.00657 -0.00147 -0.005035 -0.013555 -0.001939 -0.011408 0.005093 -0.008982 0.007121 -0.010365 0.005097 0.002373 0.012324 0.000164 0.00405 0.006652 0.003336 -0.005696 -0.006193 0.006509 -0.007293 0.013641 0.010171 0.003705 -0.01113 -0.003829 -0.005321 0.006609 -0.001438 -0.008551 0.000951 -0.00162 -0.002698 -0.004177 0.016764 0.004874 0.013307 -0.004254 0.006107 0.000466 0.011733 0.020246 0.015232 0.017674 -0.001913 0.005737 0.000871 -0.010082 0.007129 -0.011959 0.018541 0.006443 -0.004867 0.012902 -0.009234 0.014126 -0.008597 -0.010131 -0.011425 0.004377 0.004807 0.002776 0.000608 0.000955 0.003156 0.004016 0.00138 -0.017179 -0.000432 0.002596 0.005772 0.007465 -0.007139 0.006013 0.005737 0.017282 -0.010473 -0.01825 -0.008226 -0.011571 0.005304 -0.010959 0.008683 -0.001071 0.009339 -0.006214 -0.007305 -0.010353 0.006458 0.016249 0.011008 0.00195 0.00607 -0.014346 -0.011651 -0.002022 0.002843 0.006861 0.005354 -0.003398 -0.00382 -0.010498 0.013224 0.008338 0.019526 0.007802 0.000634 -0.008078 -0.013559 0.004388 -0.008433 -0.004276 -0.009805 -0.000778 0.013734 -0.014992 -0.015684 0.022617 -0.002814 -0.002783 0.009407 0.000982 -0.013664 0.002638 -0.021179 0.002795
value.isNull 0.007397 0.004288 -0.004609 -0.004446 0.008681 0.002941 0.00178 0.010554 0.010171 -0.003804 -0.004717 -0.003713 0.002207 -0.013961 0.000946 0.010637 0.006099 0.002467 0.000181 0.001328 0.011909 -0.01227 0.004495 -0.00657 0.004657 0.002276 0.000141 0.005901 -0.004878 -0.007259 0.005059 0.000124 0.004295 0.005332 0.020865 -0.005952 -0.013274 0.007651 -0.007722 0.011301 -0.015002 0.018942 -0.014803 -0.016866 0.006623 -0.002973 0.002867 -0.009111 0.009403 0.021929 0.003237 0.009417 -0.008036 -0.008162 0.011173 -0.002723 0.002514 -0.003321 -0.010669 -0.000729 0.007951 0.000696 -0.005255 0.002469 -0.002698 -2.9e-05 -0.010791 0.003261 -0.008543 0.003898 0.010771 -0.006033 -0.00636 0.008225 0.001758 0.000995 0.001691 0.00961 0.011154 0.01531 0.008518 0.004018 0.008211 -0.001302 -0.000168 0.003008 -0.000926 0.015679 -0.008499 -0.001261 0.002758 -0.003733 -0.000204 -0.013862 -0.004164 0.007641 0.006571 0.002489 -0.006715 0.007375 0.003012 -0.004741 -0.008572 -0.00315 -0.003772 0.001002 0.008599 -0.016059 -0.006749 -0.010297 0.002678 -0.009513 0.003943 0.004156 -0.002964 -0.002237 -0.014931 0.006909 -0.003427 -0.020802 0.010463 0.001969 -0.021271 -0.006279 0.008398 0.000103 -0.005511 -0.00066
<operator>.indirection 0.001164 0.008573 -0.003148 -0.004852 -0.000554 0.001244 0.002473 0.000137 -0.000143 -0.010226 -0.002283 -0.004745 -0.004118 0.000559 0.00806 -0.006781 -0.002918 0.010994 0.011699 0.001982 -0.008171 0.005349 0.00136 0.003843 0.002737 0.009527 -0.005264 -0.001497 -0.000589 0.008381 -0.002828 -0.004489 -0.003957 -0.00102 -0.001713 6e-06 -0.002189 -0.006359 0.006947 -0.005875 -0.003731 -0.00105 0.013684 0.006779 0.00742 0.009466 0.005968 -0.000197 0.003788 -0.005865 0.003134 -0.000388 0.006892 -0.001211 -0.0013 -0.002329 -0.001455 0.002566 -0.00881 -0.003597 -0.008751 0.009678 0.002368 -0.005452 0.011674 0.010372 -0.005366 0.005994 0.004105 -0.007986 -0.001056 0.004345 0.011463 0.002977 -0.003025 -0.001918 0.001596 0.007199 -0.010396 -0.003594 0.001884 -0.000275 -0.004355 -0.006591 -0.001875 0.006612 0.001766 -0.006507 -0.003405 -0.002768 0.000974 0.000935 0.006547 -0.008072 -0.003266 -0.011725 0.001744 0.006117 -0.009247 0.004576 -0.001277 -0.003037 -0.000673 0.002325 0.007645 0.003581 0.008838 -0.002914 -0.00281 -0.004458 -0.012268 0.010398 -0.007012 -0.003044 0.00222 0.005654 0.000932 0.00733 -0.009388 0.0112 0.006009 -0.002602 0.007219 -0.000972 -0.011103 0.000335 -0.009529 -0.000405
FAILURE 0.011766 0.013012 -0.000265 -0.010715 0.0025 0.013317 0.012839 0.01123 0.014661 -0.006633 -0.007042 -0.004096 0.009098 -0.012624 0.010454 -0.007514 0.003899 0.007736 0.012889 -0.006106 -0.001216 -0.004534 0.007976 0.004984 0.006685 0.013783 -0.004961 0.004909 -0.002214 0.020819 -0.009557 -0.013424 0.008553 0.011041 0.01287 -0.002602 -0.011116 -0.019058 -0.001657 -0.006722 -0.022731 0.017689 0.003652 0.00987 0.013925 0.019596 0.003723 -0.000749 0.0168 -0.00264 0.009116 0.004466 0.011523 -0.011732 0.004018 -0.004437 0.014351 0.003262 0.001566 0.004659 -0.001628 0.01581 0.001944 -0.005057 0.018321 0.026899 -0.004807 0.008346 -0.00126 -0.013902 0.009249 0.008974 -0.001075 0.023209 -0.002645 -0.00331 -0.005501 0.004484 -0.006549 -0.001455 0.009228 0.012953 0.001451 -0.006628 7.6e-05 -0.001442 0.00187 0.007837 -0.01094 0.001422 -0.001916 0.01182 0.005946 -0.019651 -0.006671 -0.01622 0.009715 0.011468 -0.016939 0.0122 -0.010255 0.001793 -0.019403 0.008493 -0.001976 0.001104 0.014654 -0.010962 -0.020028 -0.014481 -0.020522 0.011215 0.004385 0.008127 0.001689 0.003181 -0.008504 0.013571 -0.006815 0.011278 0.01091 -0.009904 -0.000884 0.009486 -0.012516 0.005958 -0.017606 -0.004651
FALSE -0.001568 0.024976 -0.009739 -0.021246 0.001318 0.000798 -0.003596 0.007889 0.017761 -0.018536 -0.003637 -0.012461 0.004662 -0.010108 0.014817 -0.019111 0.014317 0.010319 0.013035 -0.007992 0.005759 0.001956 -0.003466 0.012053 0.013171 0.017174 -0.021618 0.002898 -0.000562 0.011149 -0.008576 -0.008305 0.005182 0.005392 0.006647 -0.001134 0.000894 -0.017502 0.014174 0.000949 -0.001675 0.004698 0.016872 0.018626 0.026926 0.019634 -0.003988 -0.001357 0.0225 -0.023293 0.007145 -0.003924 0.019761 0.005014 -0.006031 -0.000146 0.013982 0.027751 -0.005438 -0.005191 -0.012644 0.011263 0.004547 -0.005593 0.006975 0.014037 0.005382 -0.000445 -0.000244 -0.01599 0.016491 0.002445 0.00301 0.019781 -0.015212 0.005838 -0.001666 0.024814 -0.0171 -0.01624 -0.002771 -0.003309 0.002765 -0.014345 0.010115 0.004666 0.004428 0.002666 -0.013727 -0.005238 -0.003156 0.024422 0.011696 -0.005343 -0.005462 -0.02281 -0.003448 0.011447 -0.00926 0.010436 -0.001525 -0.001232 -0.010091 0.012411 0.021881 -0.001306 0.01796 -0.006384 -0.016292 -0.007207 -0.030161 0.015521 0.001327 -0.003875 -0.006392 -0.000183 0.00037 0.00826 -0.0183 0.03391 0.014021 -0.011141 0.005559 0.013345 -0.027001 0.00316 -0.038303 -0.007417
HTMLElement::parseAttribute 0.002757 -0.004986 0.004808 0.003672 0.002818 0.003397 -0.001894 0.003256 0.002158 0.001805 0.002581 -0.002022 -0.000152 0.005949 -0.001894 -0.0023 0.007341 0.005956 -0.001775 0.002447 -0.001036 0.004772 -0.00403 0.004028 0.00251 0.001707 0.000556 -0.006359 -0.000264 -0.006735 -0.001084 0.006442 -0.003025 -0.006558 -0.002907 -0.002062 0.006302 -0.004278 0.000348 0.000541 0.005756 -0.005155 0.00018 -0.001443 -0.001685 0.000243 0.000126 -0.000772 -0.003408 -0.001632 0.000219 0.002315 -0.004249 0.005409 -0.003859 0.005485 0.000741 0.001011 -9.3e-05 -0.001837 0.000233 0.00037 -0.005732 -0.004138 0.000231 0.001259 0.002135 -0.002612 -0.003003 -0.001671 0.00101 0.001712 0.00473 -0.002575 -0.004895 0.004445 -0.000758 -0.00208 -0.000245 -0.00049 -0.002162 -0.002289 0.005362 0.002054 0.001326 -0.004853 -0.000439 -0.006922 0.005696 0.00172 0.001188 0.006351 0.000228 0.005112 0.00123 -0.005994 0.005078 0.004193 0.001158 -0.006767 -0.001734 -0.005015 0.006282 0.000178 0.00469 0.002931 0.004586 0.001041 -0.001866 -0.003854 0.001506 -0.002841 0.001457 0.001271 0.002707 -0.000433 0.006282 -0.006657 0.000885 0.001419 0.00375 0.002719 0.000305 0.005943 -0.002286 -0.002669 -0.000936 -0.003133
MPI_IOCSTATUS_INSUFFICIENT_RESOURCES 0.0086 0.010407 -0.007845 -0.013789 -0.000169 0.008675 0.006412 0.009224 0.012203 -0.004677 -0.002442 -0.011117 0.006674 -0.01207 0.000726 -0.006961 -0.008414 0.002457 0.011701 -0.005075 0.008981 -0.002191 0.00298 -0.003392 0.007164 0.010936 -0.003797 0.00446 -0.006383 0.007612 -0.001429 -0.003425 0.00961 0.002155 0.014419 0.003913 -0.014849 -0.003186 -6.6e-05 -0.007526 -0.020993 0.009122 -0.002479 -0.000333 0.010194 0.011549 0.006799 -0.00914 0.012287 0.010131 0.007137 0.007172 0.000325 -0.010408 0.010443 -0.004045 0.010816 -0.002217 -0.00022 -0.001486 0.000388 0.013118 -0.004078 0.003074 0.013313 0.016793 -0.009902 0.004188 0.0034 -0.002874 0.008438 0.004899 -0.002328 0.017072 -0.002152 0.008603 -0.003379 0.003882 0.000932 0.00469 0.017113 0.010751 0.000732 -0.010856 -0.007614 -0.001478 0.000831 0.015596 -0.007114 0.008035 -0.006132 0.000104 -0.003544 -0.019194 -0.018392 -0.000483 0.005746 0.009672 -0.007165 0.001922 -0.003741 -0.002052 -0.017396 0.001794 -0.005203 0.009278 0.012668 -0.014824 -0.018447 -0.006267 -0.002554 0.003944 0.014925 0.001025 -0.003484 0.010187 -0.011968 0.01362 -0.00368 -0.005994 0.013205 -0.006264 -0.012137 0.000124 -0.006997 0.002863 -0.004249 -0.005299
MPTSAS_FIFO_FULL 0.016401 0.018242 -0.009777 -0.013829 0.008597 0.011433 0.009609 0.019299 0.010072 -0.004693 -0.007169 -0.009363 0.010487 -0.006488 0.008202 -0.007974 0.008875 0.008254 0.012744 -0.004476 0.003931 -0.004204 0.009751 0.001251 0.009585 0.018415 -0.008863 0.006267 -0.004467 0.011166 -0.014464 -0.008499 0.00795 0.009458 0.019565 0.002375 -0.018015 -0.016697 0.005806 -0.003513 -0.014044 0.015338 -0.003782 -0.000482 0.024469 0.018092 0.001299 -0.002819 0.013715 -0.003245 0.001403 0.005907 0.008839 -0.006907 0.001783 -0.000697 0.014053 0.011815 -0.002462 -0.000226 0.000875 0.015041 0.000742 -0.007163 0.019006 0.018275 -0.007603 0.00908 0.001517 -0.011072 0.014309 0.002714 -0.001971 0.018981 -0.005817 0.013423 -0.004346 0.00635 -0.006569 0.002965 0.014326 0.007468 -0.008397 -0.007163 -0.003321 0.00343 0.00766 0.008118 -0.016646 -0.004072 -0.003011 0.006962 0.003687 -0.024073 -0.011722 -0.013465 0.009281 0.008467 -0.01074 0.005246 -0.004401 0.000781 -0.01332 0.007148 0.01131 0.007901 0.020728 -0.018691 -0.018891 -0.014289 -0.011701 0.005316 0.009747 -0.002003 -0.010609 0.010566 -0.005571 0.019562 -0.007163 0.0054 0.02544 -0.012157 -0.013429 0.003662 -0.011821 0.007208 -0.025634 -0.010006
MPTSAS_FIFO_PUT 0.004749 0.017446 0.001611 -0.01154 0.005591 0.011961 0.014091 0.016698 0.008283 -0.000886 4.3e-05 -0.012768 0.012297 -0.016346 0.00325 0.000342 -0.005988 5.3e-05 0.006978 0.000339 0.00788 -0.001164 0.01313 -0.00185 -0.001758 0.013682 -0.004991 0.01138 0.000238 0.012195 -0.012268 0.001121 0.008295 0.008839 0.021081 0.002201 -0.016544 0.000803 0.000773 -0.00521 -0.021415 0.014368 -0.006499 -0.009822 0.016631 0.005831 0.007633 -0.003183 0.014047 0.006057 0.010269 0.010148 -0.002798 -0.011884 0.008193 -0.007279 0.012605 -0.00285 -0.000796 0.005877 0.009731 0.01534 -0.004199 0.001492 0.007429 0.01609 -0.01456 0.013209 -0.000983 0.003831 0.011552 0.008896 -0.005612 0.01171 -0.005539 0.005328 0.00036 0.003429 0.003704 0.006504 0.008263 0.010245 -0.003019 -0.005551 -0.004415 -0.002136 0.001718 0.018777 -0.003798 0.008535 0.000435 -0.003923 -0.000553 -0.026036 -0.014758 -0.011063 0.009111 0.009977 -0.000319 0.005756 -0.009078 0.001506 -0.015996 0.004554 0.005188 0.003157 0.009157 -0.014101 -0.021318 -0.002804 0.001152 0.002087 0.016095 0.001533 -0.001104 0.006217 -0.006172 0.017472 -0.002296 -0.008961 0.014308 -0.004103 -0.012223 -0.001382 -0.010485 0.006619 -0.005185 -0.001001
XmlPrologTok -0.004089 -0.004864 -0.000178 0.009101 -0.006898 -0.014225 -0.001446 -0.00798 -0.001385 -0.009099 0.000335 0.000922 0.001078 0.002861 0.004435 -0.004476 0.004264 -0.002681 -0.000309 0.000812 -0.002522 0.010053 -0.003115 0.004334 0.002574 -0.012565 -0.003209 -0.005001 -0.003173 -0.004804 0.00599 -0.007835 -0.005731 -0.006417 -0.014916 0.009825 0.022356 0.004136 0.00347 -0.000391 0.008859 -0.006096 0.011986 0.015318 0.000178 -0.005081 0.005059 0.004725 -0.007573 5.1e-05 -0.002062 -0.007473 0.010386 0.002249 -0.001798 0.002024 -0.014584 0.005824 -0.00527 -0.00471 -0.010139 0.00349 0.010777 -0.000216 -0.005566 -0.002033 0.00595 -0.007312 0.006182 -0.006644 0.004187 0.003291 0.001151 -0.005933 -0.003333 -0.005921 0.002829 0.002075 -0.002704 -0.011531 -0.006332 -0.006564 -0.000413 -0.000487 0.00419 -0.004687 0.005842 -0.007931 -0.004771 -0.001597 -0.007025 0.007708 0.010729 0.009806 0.015706 -0.000184 -0.011525 0.000772 0.002408 -0.00708 0.001013 0.002701 0.005145 -0.003851 -0.00161 -0.000591 -0.003323 0.010384 0.009249 0.001798 -0.010304 0.000747 -0.015452 0.002532 -0.00129 -0.000617 0.014762 -0.00305 -0.004676 0.007346 -0.004375 -0.005828 0.012216 0.006729 -0.010799 0.003897 0.001323 -0.001357
arg 0.002436 0.026679 -0.006207 -0.011177 0.006194 -0.013606 2.5e-05 0.000358 0.011024 -0.020472 -4.3e-05 -0.014793 0.013301 0.001211 0.022388 -0.015927 0.003228 0.021042 0.017635 -0.002003 -0.004122 0.00672 -0.005458 0.020638 0.014278 0.002884 -0.028875 -0.002182 -0.005497 0.022236 -0.001202 -0.015027 -0.000432 -0.011425 -0.009371 0.005671 0.018954 -0.013279 0.01965 -0.009408 0.001828 0.003429 0.02653 0.028134 0.021119 0.029708 -0.004768 -0.004129 0.017142 -0.020324 0.005205 -0.015616 0.032811 -0.009887 -0.005878 0.015911 -0.0037 0.024754 -0.003682 -0.007566 -0.021774 0.017041 0.01632 -0.007402 0.007219 0.012455 0.002535 -0.00128 0.002127 -0.028814 0.008416 0.004684 3.9e-05 0.016209 -0.015408 0.006214 -0.005682 0.019541 -0.017281 -0.016603 -0.005835 -0.007045 0.006643 -0.014599 0.00476 -0.000475 0.009083 -0.004936 -0.004359 -0.008487 -0.002433 0.029854 0.012379 -0.002785 0.008999 -0.023339 -0.000105 0.007788 -0.000966 -0.004154 0.011184 -0.003918 -0.004607 0.001048 0.012115 0.010534 0.021766 0.011168 -0.005044 -0.004562 -0.024775 0.007572 -0.007019 -0.000391 -0.005233 0.003252 0.011049 -0.004274 -0.024057 0.039613 0.007777 -0.015249 0.012141 0.015354 -0.032816 -0.002973 -0.032137 -0.0084
contents -0.009231 0.004199 -0.006197 0.00026 -0.00411 -0.008043 -0.004074 0.000642 0.000362 -0.002507 0.001913 -0.002225 0.00424 0.005545 0.001596 -0.004262 0.004837 0.005434 0.002706 -0.000682 -0.002701 0.002518 -0.001217 0.008699 0.001121 -0.002009 -0.01332 0.000739 -0.000411 0.005816 0.002131 -0.003278 -0.000584 -0.001817 -0.009275 0.007433 0.01609 0.000236 0.011906 -0.002743 0.008923 -0.009822 0.008598 0.010861 0.005494 0.003733 -0.00291 -0.000599 -0.004108 -0.005922 0.004145 -0.011474 0.008396 0.005243 -0.005405 0.006102 -0.011126 0.00845 -0.000669 -0.000994 -0.01184 0.000968 0.010189 0.005079 -0.003651 -0.006268 0.006341 -0.003526 0.007603 -0.005115 -0.000542 -0.001019 -0.002924 -0.002849 -0.000251 0.007049 0.005178 0.005859 -0.000776 -0.009914 -0.01064 -0.004713 -0.002694 0.000125 0.001387 -0.000654 0.003646 -0.009993 -0.004167 0.000892 -0.000426 0.004577 0.007279 0.008519 0.007074 -0.004635 -0.005669 -0.005611 0.004806 -0.008026 -0.002262 0.00271 -0.002798 -0.009232 0.003566 0.001617 -0.003307 0.007973 0.006459 0.005325 -0.003647 -0.000729 -0.009735 0.00193 0.003551 -0.003256 0.010661 -0.007952 -0.001662 0.01553 -0.004064 -0.001411 0.004881 -2e-05 -0.001175 0.004194 -0.010767 -0.001753
cpu_active_mask 0.008012 0.01838 -0.006411 -0.017237 0.001499 -0.002025 -0.001438 0.014576 0.012847 -0.013207 -0.006512 -0.013104 0.002271 0.002558 0.017022 -0.021293 0.006871 0.011757 0.021925 -0.009168 -0.007183 0.011731 -0.004259 0.009862 0.014734 0.015359 -0.018541 -0.002605 -0.002321 0.024806 -0.014357 -0.017622 0.006227 -0.001431 0.009635 0.002726 -0.002849 -0.01578 0.017384 -0.00443 -0.013266 0.009899 0.014823 0.016725 0.019904 0.029233 -0.003752 -0.005394 0.017064 -0.015268 0.00522 -0.005369 0.021627 -0.016177 -0.006798 0.007886 0.011594 0.021781 -0.004626 -0.005391 -0.013169 0.028748 0.010655 -0.001188 0.011815 0.018615 -0.007495 -0.003149 0.005046 -0.018979 0.012998 0.010681 0.009327 0.032142 -0.014005 0.003305 0.006606 0.011563 -0.017802 -0.016619 0.001641 0.005016 -0.004698 -0.010054 0.008095 0.000863 0.005605 0.003135 -0.008708 -0.00311 -0.004805 0.028494 0.003967 -0.01568 -0.007929 -0.026159 -0.005055 0.011147 -0.016065 0.006252 -0.008052 0.002887 -0.014672 0.003591 0.014744 0.012041 0.020194 -0.008479 -0.017732 -0.009243 -0.01988 0.011205 -0.003122 -0.001364 -0.003486 0.002702 0.000357 0.011483 -0.017626 0.030212 0.017506 -0.017539 0.0007 0.017015 -0.028817 0.006075 -0.031608 -0.008237
drv 0.003882 0.006171 0.005128 0.002093 -0.002512 -0.015398 -0.002201 -0.00013 -0.002132 -0.012904 0.002487 -0.004888 -0.012219 0.007656 0.005239 -0.002378 0.003329 0.014182 0.004295 -0.002941 -0.00206 0.006093 -0.00979 0.007523 0.005564 -0.002711 -0.013713 -0.011443 -0.00766 -0.000426 0.006871 -0.005581 -0.002871 -0.004836 -0.015352 0.007371 0.021545 -0.001549 0.011839 -0.003938 0.019062 -0.012322 0.016026 0.02491 0.007476 -0.000213 0.001117 0.001704 -0.001508 -0.020499 0.003228 -0.016355 0.01899 -0.002101 -0.006651 0.012209 -0.005995 0.016917 0.004575 -0.007014 -0.011482 0.005448 0.007403 0.005178 -0.001433 -0.003834 0.004459 -0.010501 0.004532 -0.010112 -0.002535 0.005009 0.003702 -0.001046 -0.002363 0.002593 0.003731 0.009537 -0.005301 -0.013121 -0.001611 -0.004552 0.002433 0.004398 0.009897 0.003128 0.004549 -0.015006 -0.003712 -0.006077 0.005222 0.020013 0.008117 0.008561 0.014298 -0.008241 -0.004548 0.010788 0.00424 -0.000124 0.013564 0.002151 0.010602 -0.004252 0.012481 0.000458 0.004583 0.011473 0.003219 -0.000454 -0.019909 0.006573 -0.010367 -0.007489 -0.004054 -0.006736 0.019102 -0.014255 -0.011664 0.02383 -0.005499 -0.010491 0.011791 0.00941 -0.009616 -0.001119 -0.017756 -0.004426
element 0.002108 0.001412 0.000986 0.005612 -0.004635 -0.004253 -0.001291 -0.000896 -0.000143 -0.003756 -0.00126 -0.003032 0.000925 0.002856 0.00532 -0.006875 -4.1e-05 0.004872 0.001461 0.001906 -0.009735 0.004743 -0.006705 0.000681 0.006779 -0.002746 -0.006338 0.00078 -0.000147 -0.000432 0.007478 -0.007021 0.003947 -0.003151 -0.004894 0.001396 0.008356 -0.007131 0.002229 -0.005779 0.007184 -0.001255 0.009118 0.009887 0.001728 0.002426 -0.004287 -0.000695 0.007114 -0.001759 0.000865 -0.006013 0.006249 0.008456 -0.007677 0.001158 0.001558 0.000687 -0.002007 -0.004692 -0.002316 0.00546 0.00292 -0.003469 0.003667 0.000704 0.002355 -0.004252 -0.003666 -0.001408 0.000515 0.00487 0.008729 -0.004105 -9.4e-05 0.001639 0.000915 0.003045 -0.004633 -0.006697 -0.004777 -0.004224 -0.001723 -0.003286 0.002006 0.002509 0.004569 -0.008522 -0.002799 0.000295 -0.001375 0.007723 0.002867 0.002472 0.003192 -0.004012 -0.004107 -0.002074 -0.001812 0.001228 0.004811 -0.001588 0.001902 -0.003011 0.003039 -0.004516 0.002396 0.006913 0.007877 0.000531 -0.0065 0.007394 -0.004374 -0.002598 0.002556 0.001313 -0.001749 -0.006256 -0.006994 0.003261 -0.002936 0.001313 0.006278 0.009458 -0.009473 0.00045 -0.002552 0.001158
include_privacy_sensitive_fields 0.000978 0.001485 -0.002065 0.006797 -0.000785 -0.004464 -0.002601 -0.003628 -0.006706 -0.005031 -0.002095 -0.008486 -0.000298 0.004961 -0.000647 -0.004029 -0.002383 0.004183 -0.00232 -0.003843 -0.000797 -0.002193 -0.007777 0.003719 0.005001 -0.005265 -0.008287 0.001456 -0.006649 0.004166 -0.000115 -0.002422 -0.004924 -0.002454 -0.005276 -0.002398 0.003608 -0.006224 0.012034 -0.006138 0.008578 -0.000342 0.006776 0.007451 0.006108 0.009706 -0.005686 0.000124 0.000774 -0.007344 -0.002934 -0.002427 0.009555 -0.001632 -0.001361 0.010408 -0.002981 0.004087 -0.00263 -0.001702 -0.007407 0.001121 0.007605 0.003017 0.001252 -0.002126 0.007856 -0.006374 -0.003867 -0.000832 -9e-05 -0.002524 0.003693 0.00404 -0.005012 -0.001082 -0.000361 0.006904 0.001025 -0.0085 -0.00164 -0.00103 -0.004557 -0.007114 0.00204 -0.002535 0.001301 -0.007793 -0.005655 0.00442 0.000551 0.01221 0.001156 0.008038 0.003058 -0.004858 -0.002063 -0.004911 -0.003366 0.001911 0.003487 0.002539 -0.005348 -0.003828 0.004316 0.000602 0.008214 0.00734 0.006007 0.002229 -0.009268 2.4e-05 -0.000376 0.00092 -0.003768 -0.004539 -0.000219 -0.00618 -0.010145 0.009999 0.001016 -0.007933 0.00686 0.006705 -0.0081 -0.002079 -0.004746 0.000182
indexes 0.007853 0.007369 -0.010587 -0.003402 0.000349 -0.001651 -0.008025 -0.000973 0.003953 -0.015766 -0.001454 -0.001315 0.00038 0.004887 0.007496 -0.002432 0.00165 0.006956 0.01698 7e-05 0.002644 -0.000943 -0.006207 0.005302 0.00186 0.011292 -0.008908 -0.003999 -0.000936 0.001918 -0.002196 -0.006657 -0.000211 -0.008062 -0.010641 0.002082 0.013441 -0.013417 0.01049 -0.003447 -0.00222 -0.005488 0.012095 0.008759 0.009095 0.005804 0.00362 -0.001783 0.007701 -0.008463 0.001713 -0.00654 0.015914 -0.001997 -0.006705 0.005967 -0.002455 0.008733 -0.005398 -0.0042 -0.003842 0.005227 0.00291 0.002047 0.001944 0.005027 -0.002252 -0.003098 0.001174 -0.004046 0.006294 0.005873 0.005272 0.012486 -0.01285 0.005399 0.000119 0.0073 -0.011058 -0.010064 -0.00115 0.003496 0.000932 -0.005195 -0.002783 -0.000408 -0.000979 -0.006082 -0.010432 -0.00311 -0.004784 0.011859 0.003134 -0.00682 -0.003945 -0.004098 -0.000531 -0.00187 -0.0079 0.000977 -0.006109 -0.003141 0.001624 0.002753 0.01142 0.007466 0.0104 0.004097 0.001336 0.000196 -0.014768 0.010849 -0.00388 -0.008318 0.003531 0.001502 0.006443 0.005874 -0.016976 0.012291 0.000526 -0.006585 0.009075 0.010194 -0.012795 0.002909 -0.011961 -0.000791
mptsas_set_fault 0.010049 0.006908 -0.004352 -0.007087 0.008221 0.010654 0.003147 0.015162 0.007305 0.001423 -0.007461 -0.008028 0.00469 -0.010082 0.004214 -0.007412 0.001081 0.001817 0.007284 -0.001237 0.007161 -0.000684 0.009468 -0.004001 0.001485 0.008853 -0.006851 0.009253 -0.005305 0.01793 -0.00192 0.001231 0.007691 0.000705 0.011839 0.007598 -0.0125 -0.002832 0.002228 -0.008665 -0.01633 0.007469 0.002234 -0.001395 0.010815 0.002921 0.004186 -0.004446 0.014777 -0.001628 0.009075 0.008699 0.002544 -0.010737 0.010558 -0.009206 0.012589 -0.002524 0.000741 0.001357 -0.006624 0.01852 -0.00217 -0.002984 0.013903 0.012365 -0.005723 0.006701 0.000179 -0.002288 0.00486 0.004306 -0.001522 0.008147 -0.008306 0.000794 -0.006321 -0.001048 -0.004153 0.005326 0.013274 0.010331 -0.003393 -0.007342 -0.003272 0.001211 0.005338 0.011798 -0.000597 -0.001966 0.002277 0.005151 0.002647 -0.013618 -0.00439 -0.005783 -0.002371 0.010531 -0.011364 -0.002336 -0.003648 -0.000513 -0.011537 0.007647 0.003328 0.012597 0.009425 -0.013146 -0.014306 -0.006588 -0.00295 -0.000951 0.00886 0.001695 -0.006001 0.003917 -0.007702 0.013214 -0.002853 -0.005244 0.01806 -0.008323 -0.004512 0.006693 -0.005455 0.001422 -0.009011 -0.000974
netif_err 0.007591 0.023988 0.000361 -0.011558 0.007003 -0.006389 -0.005118 0.006324 0.008882 -0.019645 -0.006264 -0.015223 -0.003463 0.005316 0.01009 -0.009207 0.007987 0.010663 0.011112 -0.007221 -0.005617 0.008977 -0.001226 0.014823 0.01472 0.00794 -0.021229 -0.000861 -0.011542 0.020394 -0.005257 -0.008966 -0.002526 0.001035 -0.00495 0.006705 0.00876 -0.011478 0.016032 -0.005126 0.004781 0.003065 0.015613 0.024583 0.018507 0.015204 -0.000614 -0.004007 0.010095 -0.023837 0.007537 -0.014373 0.026166 -0.006501 -0.005031 0.007017 0.000462 0.021504 -0.004075 -0.006544 -0.012295 0.021289 0.008365 -0.000211 0.010794 0.010085 0.004407 -0.002398 -0.003463 -0.019478 0.005364 0.012029 0.010939 0.015935 -0.011061 0.012522 -0.001473 0.012596 -0.009222 -0.017978 0.000725 -0.001509 0.003906 -0.008211 0.00057 0.001956 0.013412 -0.00736 -0.006786 -0.001231 -0.004547 0.025931 0.013707 -0.00243 0.006579 -0.022385 -0.004604 0.01618 -0.002764 0.007567 0.009748 0.002435 -0.004453 0.002238 0.012331 0.00854 0.011819 0.000425 -0.008539 -0.01479 -0.032839 0.013118 -0.01005 -0.000731 -0.002562 -0.001884 0.013098 -0.003954 -0.017422 0.029135 0.009059 -0.019816 0.007307 0.014898 -0.026289 0.002306 -0.028592 -0.011612
oldDisabled 0.004234 0.004005 0.000142 -0.00485 -0.006598 -0.00555 0.001265 -0.007121 0.003978 -0.006419 0.001085 -0.003696 0.000264 0.003793 -0.00153 -0.006023 0.004584 0.003641 0.006696 -0.004663 -0.001539 0.000944 -0.004191 0.00189 -0.000854 0.004724 -0.00635 0.003901 0.004935 -0.001876 0.003004 -0.002638 -0.005807 0.004869 4.6e-05 -0.001114 -0.000471 -0.002983 0.003878 -0.000548 0.006935 0.002757 0.003568 0.006412 0.003849 -0.002052 0.000148 -0.001006 0.001924 -0.005274 -0.000139 0.004317 0.003012 0.001403 -1e-04 0.00308 -0.004731 0.007444 0.002819 -0.008813 -0.002838 0.00416 0.005762 -0.004552 0.002433 -0.002178 0.008471 -0.005694 0.003646 -0.000618 -0.002386 -0.000131 -0.003153 0.006968 -0.00062 0.002109 -0.001943 0.006124 -0.000741 -0.003526 -0.011164 -0.005001 -0.001932 0.000138 0.004513 -0.001609 0.000756 -0.005052 0.002324 0.003016 -0.003602 0.011639 0.002522 0.000244 -0.001449 -0.007135 0.004702 -0.007024 0.004778 -0.002433 0.001202 0.007148 -0.003603 -0.002218 0.005723 0.004587 -0.000546 0.006268 0.007619 -0.001144 -0.005061 0.01023 -0.003981 0.002836 0.003124 -0.001671 0.003711 0.002328 0.003279 0.005204 -0.002858 0.000436 0.00771 0.010108 -0.000506 -0.000112 -0.002233 0.000954
